리뷰자,0,1,2,3,4,5,6,7,8,9,10,11,12,13,14,15,16,17,18,19,20,21,22,23,24,25,26,27,28,29,30,31,32,33,34,35,36,37,38,39,40,41,42,43,44,45,46,47,48,49,50,51,52,53,54,55,56,57,58,59,60,61,62,63,64,65,66,67,68,69,70,71,72,73,74,75,76,77,78,79,80,81,82,83,84,85,86,87,88,89,90,91,92,93,94,95,96,97,98,99
K000TGNRK0RYTHFlYXlySkFPd3lJdz09,0.3771517,-0.270439,-0.07135393,-0.16187535,-0.1734588,-0.0047936924,0.0895559,-0.058650944,0.3066686,-0.12534475,-0.09308288,-0.22938387,0.03391728,0.07163701,-0.15918072,-0.018063536,-0.123794734,-0.061419908,-0.02339908,-0.02174838,0.07316816,0.11404649,-0.06902792,-0.016591765,0.17383735,0.028668439,-0.104523145,0.050298396,-0.13955645,0.15131441,0.014984962,-0.061018173,0.11662519,-0.11495338,0.07225661,-0.24484038,-0.034376446,-0.05576669,-0.026673766,0.2266139,-0.058197092,-0.26197594,-0.2557483,-0.013255827,-0.07077568,-0.09965401,-0.03442473,0.12532079,-0.10330075,-0.37660345,-0.05211608,-0.22389518,0.08498023,-0.17646484,-0.03260672,-0.24576741,-0.060041115,0.21634912,0.18124245,0.1734373,-0.066775225,0.04199633,0.09829459,0.011172398,-0.116254635,-0.21084964,-0.016041655,-0.29725802,0.16098408,0.16982134,-0.06068344,0.24740791,0.11840334,0.15788563,-0.2676832,-0.26437604,0.34877583,0.17518498,-0.08062867,0.074254625,-0.29558054,-0.14883518,0.10777498,-0.42559233,-0.10439723,-0.09868506,0.3837435,-0.17510647,0.100768864,-0.20755048,-0.079514526,0.057651505,-0.08367726,0.0045558154,0.068038836,-0.18879168,0.06937565,0.13346806,0.39796782,0.08044154
K01rTk5mU3I1WWN5SmcrSHMveVFVdz09,0.064668305,-1.0713259,-1.233036,-0.20344073,0.17594558,-0.78178036,1.2039307,-0.31874704,1.3339677,-0.6864336,-0.425447,-0.33227566,-1.1808901,0.48298544,-0.71997446,0.31898075,0.29609197,-0.024683615,-0.5850104,1.085979,0.63781774,1.4166838,0.0993733,0.30227104,-0.00993442,0.7119561,0.3325241,0.7944911,-0.6243466,0.69633645,-0.36228377,-0.46708846,0.9703888,-1.1573416,0.5070764,-1.2410105,0.56225693,0.38414073,-0.010399112,0.18647376,-0.25937968,-0.2855373,-0.36377504,0.46739328,-0.044984378,-0.04784625,0.4343992,1.194659,0.9660814,-1.8963795,0.44516912,-0.35167846,-0.6387533,0.23390271,-0.7444748,0.097978815,0.6291257,1.3469021,0.6396841,1.0717082,-1.0845559,0.6162721,-0.0013094587,0.376419,-0.95963025,-0.4968885,0.830941,-0.65960926,1.0871861,0.93437016,-0.053327825,1.3394617,0.15045677,0.25147915,0.6385581,-0.3994896,0.8334062,-0.18027234,-0.9628781,-0.5432861,-1.473258,-0.72825366,0.89423794,-1.5113038,0.01837947,0.38311818,1.1878808,-0.82517856,-1.0847222,-0.20436549,-1.2168452,-0.065093316,0.4099676,-0.9639696,0.6388469,-0.9760261,-0.41293344,1.1001184,1.4639955,-0.52178854
K09aUDdkaDQwMjBJeTBUTG8rdnBnQT09,0.8017492,-0.91335046,-0.032670498,-0.9763431,-0.18228222,-0.4048096,1.1673923,-0.2772224,1.4577143,0.10815943,-1.0179929,-1.2863775,1.0884886,-0.17811699,-0.7428164,0.9792617,-0.019982932,-1.759832,-0.14688559,-0.32256776,1.2007409,1.1792467,-0.7661164,-0.8908696,0.8079359,-1.2100059,-0.5388606,-0.37325096,-1.3085519,1.7077438,-1.1048592,-0.9418805,1.4000466,-1.1865461,1.3869385,-2.199006,-0.83081216,-0.8496843,0.49059662,0.15647133,0.21419223,-1.3770658,-1.7635711,0.31483603,-1.0944237,0.37328967,0.22759396,0.9725068,-0.09215993,-1.8073264,-0.45792773,0.79655594,0.53122675,-0.5015766,-0.32695743,-1.7769169,0.75876385,0.86600375,2.2461703,0.97208744,-0.3286143,-1.0551183,-0.109133355,1.0923607,0.009847463,-0.6070299,0.66462666,-0.254002,1.5655195,1.5696499,-1.217269,-0.16606604,0.71922946,1.1093525,-1.6280711,-0.55783385,0.89125764,0.9693674,-0.8553305,0.25517386,-0.8732158,-0.6807275,-0.29818368,-0.9268783,0.5999367,-1.0098243,1.2647134,-1.9106277,0.68450993,-1.8034374,0.5088339,-0.046787124,-0.40612423,-1.117772,0.7225806,-1.3750259,0.730919,0.9111488,1.8467003,0.67649853
K0E1dFFFTFc4UjNlZjF1S2VqRVRIUT09,0.85701597,-0.3240939,0.24024239,-0.33362705,-0.630779,0.2645665,0.1632515,-0.03741101,1.1931614,-0.26950958,0.048015825,-0.741425,0.09243009,-0.0915445,-0.1651754,-0.0021681725,0.3368581,0.118868485,0.027257472,0.43321186,0.7752696,0.5708336,-0.47289476,0.02985102,0.42942277,0.1456995,0.027482402,-0.2293233,-0.60717803,0.2174691,0.441406,0.21478447,0.0010543708,-0.32857984,0.02410926,-0.2699944,-0.35446757,0.09116152,-0.14344326,0.35842028,0.3164099,-0.054690193,-0.1652421,0.2819873,-0.17692675,-0.08329965,0.030851325,0.43621016,0.024714569,-0.7607655,-0.1617591,0.04176583,-0.381236,-0.35241595,0.1643474,-0.8082676,-0.3650639,0.40039515,0.7016864,0.12755938,-0.17509298,-0.17035148,0.31917557,-0.13616219,-0.32148054,-0.36717,-0.2950094,0.15263407,0.055372328,0.7751358,0.043345593,0.6456614,0.36977848,0.037552632,0.058504097,0.021605477,0.4746737,-0.0142091755,-0.3314914,-0.14342529,-0.47896633,-0.18190679,0.17956948,-0.6186098,-0.29397362,-0.680199,0.48899913,0.022091074,0.3425022,0.21383493,-0.08252001,0.4818503,0.10534507,-0.5126189,0.14710367,-0.091005825,0.13674335,0.008038431,1.030235,-0.010451204
K0FzNHYwcUhlLzIxUHRUQm9xVitTdz09,0.7530194,-0.42255762,-0.28663555,-0.36992887,0.042121813,-0.016723784,-0.0915783,-0.002491489,0.650301,0.14886694,-0.07252396,-0.61580503,0.18882184,0.08913772,-0.48505962,0.29231516,-0.6730359,-0.4082788,0.055014603,-0.100498654,0.517623,0.19345047,-0.5073395,-0.3069544,0.16491148,-0.2949979,-0.40972346,-0.18422951,-0.64225686,0.34558973,-0.0009786431,-0.5273674,0.30798447,-0.2734495,0.04653795,-0.2867648,-0.31340888,-0.3388157,-0.05718801,0.82368225,-0.5076593,-0.06651048,-0.10196693,-0.06439801,-0.34092554,-0.0016547125,-0.1051812,0.20298573,-0.20985241,-0.656371,-0.3227134,0.068399444,-0.12631892,-0.16050237,0.042645935,-0.8745132,0.1879127,0.093266115,0.04057972,0.33655575,-0.19195355,0.55843925,-0.5556028,0.07017176,-0.3426209,-0.044838093,0.11208584,-0.28943893,0.46780407,0.40148315,-0.019484788,0.5412818,0.47509164,-0.106212,-0.4388354,-0.32490465,0.18904339,0.13406299,-0.4168901,0.5766331,-0.3865533,-0.852401,0.076478824,0.09505844,-0.30507514,0.031198427,0.7289792,-0.031543456,0.6333505,-0.32201424,0.23058617,0.05683963,0.019034274,0.047401454,0.005368797,-0.64273804,0.13217735,0.15939468,0.44334942,-0.22859219
K0NZZWdNWXB2cG92eW5uelRTZEpadz09,0.21314308,-0.66754615,-0.27115068,-0.4851657,0.116235204,-0.0125862835,-0.059791412,0.19870107,0.34609455,-0.08065796,0.062427785,-0.47089034,0.28513196,0.40041143,0.09566494,-0.18690231,-0.5917544,-0.08662484,0.04762997,-0.13976483,0.40780368,0.5202831,-0.2315803,0.018711362,0.35906038,0.2570207,-0.38248658,0.3327016,-0.06727208,0.2478476,0.3496407,-0.5331191,0.20258042,-0.020958215,0.11234648,-0.18473509,-0.101467535,-0.39055875,0.030572385,0.6844181,-0.7116713,-0.14964685,-0.19623838,-0.34607986,-0.21337375,0.1282533,-0.1863139,-0.15518887,0.23462929,-0.5299935,0.033167586,-0.8485092,-0.15292048,-0.33636984,-0.18049835,-0.72518474,0.28552005,-0.037049953,0.05270344,0.9496146,-0.4988765,0.643407,0.1274006,0.29923585,0.09604006,-0.36208922,0.055395525,-0.4374314,0.23736084,0.23797739,-0.11358603,0.37569562,0.08426516,0.19336353,-0.42110753,-0.3835443,0.61403286,0.14720888,-0.32999924,0.5255224,-0.1753804,-0.8530304,-0.050594304,-0.5379113,-0.23699787,-0.034318715,0.8310257,-0.42045322,0.13047367,-0.05601455,-0.34224963,0.2223978,0.3796456,0.07749487,-0.03744467,-0.41222316,0.23569688,0.21573043,0.5277847,-0.031109467
K0RETzBMYThDSXM5dHcyMHh2TDNGUT09,0.14073369,-0.07844679,-0.048658412,-0.0701503,-0.04130968,-0.02009795,0.044736847,-0.0043963753,0.19059056,-0.0020083734,-0.003906935,-0.123834714,0.019184265,0.03608947,-0.027267165,-0.019971889,-0.004376659,-0.025713794,0.011699373,-0.038432546,0.06359011,0.031162672,-0.034674816,-0.054878008,0.038463537,0.00037468225,-0.0126497,-0.018032108,-0.097649485,0.08136498,-0.00087231956,-0.07843804,0.12525049,-0.03591992,0.020683996,-0.092546165,-0.048313573,-0.09260281,0.007869643,0.04338798,-0.08497715,-0.06338519,-0.0870453,-0.028180024,-0.08046033,-0.048679706,-0.045607574,0.023179641,0.0064023137,-0.14454702,-0.013962243,-0.057265464,-0.0071774162,-0.04827522,0.017218933,-0.096854925,0.06332496,0.060917236,0.10605006,0.08477538,-0.118231006,0.03284957,0.0024339352,0.020381268,0.021265041,-0.041173335,-0.0176352,-0.0661557,0.10978602,0.08811184,0.025524044,0.09326605,0.021892132,0.07023477,-0.13290183,-0.08283487,0.12830399,0.043253742,-0.12620194,0.033096496,-0.060410842,-0.07766227,0.001972829,-0.1478453,-0.06198366,-0.007572214,0.16514648,-0.121939376,0.037961,-0.0029282654,-0.032700308,0.08798209,-0.027355872,-0.060849838,-0.03536164,-0.06556235,0.06055259,0.02950408,0.12113551,0.010821306
K0VNUXNqUmQ2dTZKZlhDUHBhK3Z0UT09,0.3002188,-0.50921655,-0.28125054,0.42439345,0.5027722,0.27452558,0.06009212,-0.537746,-0.10441147,0.20657086,0.3301478,-0.2821663,-0.054876946,0.09791369,-0.24329036,0.0321054,-0.36813653,-0.27603468,0.050890848,0.4916607,0.14573751,0.10488988,-0.8337492,0.29691523,0.5164083,0.4660625,-0.15550813,-0.21376267,-0.053996734,-0.19482554,0.31757346,-0.56265324,-0.43233925,-0.7654267,0.1231297,-0.41634008,-0.07035057,-0.20770293,-0.17565514,0.24059898,-0.39833626,-0.48314184,-0.09398176,-0.13081434,-0.40095204,-0.20820768,-0.14352548,0.5792326,-0.34720874,-1.1829091,0.597879,0.053059366,-0.15802109,-0.12195253,0.37235782,-0.4950853,0.01738281,0.096808344,-0.03149072,0.53535426,-0.5480374,0.061341517,-0.20816943,0.27453065,-0.6319567,-0.0034447648,0.3101498,-0.70076364,0.25263777,-0.58490366,-0.52609366,0.120965146,0.19912736,0.15796712,-0.52617323,-0.2841255,0.4185775,0.36496896,-0.027162256,0.05219597,-0.814231,-0.7509264,0.4381351,-0.93803895,0.06769049,0.23379168,0.6417076,-0.84105283,0.09382295,-0.2804711,-0.2241599,0.59013695,0.11239293,-0.45616946,-0.029490381,-0.19802828,0.30322704,0.1907508,0.28786337,-0.47360688
K0ZDbG9XbHJBMm1XZWJJdU5sNVpvdz09,0.41086292,-0.5361054,-0.11392421,-0.11627012,0.2090717,-0.13848083,-0.011942044,-0.099127285,0.2820763,-0.1037014,-0.17911348,-0.4772573,0.19398646,0.29996708,-0.17376131,-0.16552925,-0.26619875,-0.06749909,0.1620794,0.25936243,0.04594073,0.19201757,-0.16604297,0.18106328,0.32536545,0.19726035,-0.18334417,0.092104346,-0.2836347,0.0868474,0.24980801,-0.16907011,0.20276998,-0.24697576,0.003584923,-0.14762983,0.07866875,-0.13218753,0.12451649,0.32172668,-0.47617832,-0.31062254,-0.24013203,0.017013146,-0.39035785,0.096596524,0.0026012957,0.27877188,0.12029518,-0.57201385,-0.039548103,-0.48390564,-0.13676494,-0.007896464,0.09121022,-0.45125163,0.14592035,-0.0020013915,0.035619073,0.2913223,-0.49049553,0.1944227,0.016999474,0.055081937,-0.1659437,-0.36443168,0.061103888,-0.31376004,0.41811824,0.14440686,-0.1054598,0.54082835,0.16307156,0.15587515,-0.18011492,-0.16986156,0.6036143,0.316227,-0.5259514,0.12506324,-0.5312964,-0.42366415,0.19045718,-0.6793766,-0.25014746,-0.086362064,0.48501328,-0.3956982,0.090193816,-0.13420317,-0.37441733,-0.056351595,0.1783162,-0.06950591,0.20688172,-0.2776983,0.18027638,0.27402344,0.35867852,-0.2105944
K0dpanVQdHVOUWxEa1c2SEtadDUvUT09,0.4200563,-0.48765814,0.06949847,-0.15334557,0.021005329,-0.12159305,-0.0047409306,-0.09126466,0.31801435,-0.0890218,0.27605185,-0.4970128,0.3108721,0.5487947,-0.030900724,-0.18012007,-0.5175886,-0.02894005,0.13853756,0.08253459,0.105424255,0.28036568,-0.23811881,0.10244608,0.12904975,0.011145342,-0.29434064,0.10454111,-0.048719347,0.1599996,0.21206452,-0.5910973,0.1979391,-0.10980843,0.22555722,0.051288072,-0.023210216,-0.6865215,-0.037831917,0.40667725,-0.5072968,-0.17109333,-0.11218948,-0.28938913,-0.2747628,-0.06049987,-0.0032299734,0.07798967,0.22543603,-0.49216768,-0.04138098,-0.6130323,-0.20492586,-0.1289044,0.36920118,-0.71161187,0.1760647,0.29963204,0.06855405,0.54380983,-0.38142288,0.3228481,-0.3252242,0.045537252,0.0027584399,-0.33339268,-0.06405537,-0.13406777,0.08719989,0.023402132,-0.013986219,0.430827,-0.041022774,-0.1181161,-0.62008774,-0.24230649,0.62823,0.04638263,-0.34269026,0.16176431,-0.3554778,-0.44851625,-0.07678286,-0.5491902,-0.6004021,0.10195928,0.6855988,-0.39003623,0.25848174,-0.27074572,0.08369144,0.05705092,0.24123015,0.050144203,-0.24896231,-0.12370009,0.57745034,0.2885395,0.45501524,-0.2137735
K0hSTFQ5MWtBYjB2bkd3NDFVQW1yQT09,0.691647,-0.18426701,-0.3656025,-0.466208,-0.33284003,0.23952664,0.19037515,-0.10833389,0.71562576,-0.089555636,-0.5494646,-0.74662167,-0.069336616,0.19150661,-0.16734834,0.670264,-0.83317834,-0.359304,-0.3605359,0.21451674,0.31161878,0.7932741,0.22355482,-0.38461325,0.17946644,-0.14659125,-0.6006841,0.3115208,0.016084231,-0.1690956,0.30738255,-0.16113389,-0.12817873,-0.64968383,0.8294783,-0.10838869,0.17448464,0.028026149,0.014988767,0.5865456,-0.08065428,-0.11513226,-0.30243495,-0.23619722,-0.14276442,0.07238129,0.45244414,-0.23866773,-0.117860444,-1.0665288,0.20925237,-0.106189065,-0.29550973,-0.2643391,-0.069569595,-1.2281377,0.46510413,-0.29490387,0.47974044,0.25834596,-0.18098083,0.81684095,-0.21537063,-0.037902422,-0.4654694,-0.06713432,-0.06738827,-0.37266082,0.336699,-0.12871785,-0.1672791,0.6734968,0.1614412,0.15035325,-0.80253893,-0.21345742,0.24240848,0.21883133,-0.07463207,0.30963594,-0.32320514,-1.1328045,-0.10759795,-0.102461904,0.1258901,-0.17094605,0.6680198,-0.5209238,-0.42737818,-0.837182,-0.3674956,0.14874692,0.23755617,0.27961254,-0.5091661,-0.5727546,-0.049006496,-0.18175788,0.14628741,-0.13453637
K0lIWmE5Ly9haGR1S0hjVlJQdHdEUT09,0.8821429,-0.49318352,-0.519416,-0.66198707,0.6788263,-0.33917972,-0.41740537,0.15492402,0.41750732,-0.1067852,0.3424362,-0.5434992,1.0041509,0.8000292,-0.10465004,0.2112469,-1.5021518,-0.5305293,0.58355093,-0.17283458,-0.022513231,-0.31092304,0.2781727,-1.0732808,0.3505765,0.28063738,-0.9278519,-0.6365532,-0.527316,-0.08507819,0.5277305,-0.82270473,0.71148175,0.21395916,0.09068934,0.026198886,-0.9558145,-0.92274356,0.92114097,0.93726486,-0.29445338,-0.7570375,-0.450683,-0.30566233,-0.053787917,0.42372233,-0.31176212,-0.07136847,0.34078172,-1.0577399,-0.18793671,-1.014171,-0.24916956,-0.26380533,0.25752267,-0.7476913,-0.1715165,-0.1237156,-0.22258049,0.5721873,-0.04537248,0.7545796,-0.8155899,-0.027563157,0.07113854,-0.13155408,0.20522085,-0.38333994,0.26038545,0.13743018,-0.50466275,0.20344576,0.6359633,0.44639602,-0.09466602,-0.7073099,0.64174914,-0.03052571,-1.2665334,0.30314648,0.15591806,-1.3094429,-0.22418311,-0.8790838,-0.7126624,0.37140188,0.48405525,0.15868959,0.5088676,-0.07913627,0.07210881,-0.3395984,0.32943174,-0.3181886,0.77694046,-0.42802298,0.38032937,0.30317733,0.06815929,0.048335128
K0s3T2I5Qm9WSnl5SDVHcG1va1JKUT09,0.46366373,-0.5002739,0.028800428,-0.37205115,-0.278639,-0.15713184,0.31900263,-0.08222133,0.7291541,-0.28448278,0.027755594,-0.58633107,0.33875054,0.1418949,-0.02193527,-0.20355883,-0.16711873,-0.15699126,0.107415915,-0.084635526,0.29614395,0.09594529,-0.31159502,-0.2917911,0.38308728,0.04283863,-0.018927908,-0.21810286,-0.25901192,0.24773972,0.11813998,-0.75114644,0.65179324,-0.19252746,0.43566132,-0.5443944,-0.14314063,-0.4600131,0.17159933,0.29665622,-0.32604933,-0.45156616,-0.27627212,-0.39950866,-0.22250643,-0.27861342,0.05153531,0.20646015,0.102965996,-0.6522805,-0.27070862,-0.44297725,-0.17738056,-0.16232885,0.20335865,-0.5390402,0.42310768,0.14948858,0.6662526,0.49584857,-0.35938397,0.41278905,-0.12228303,0.36344966,0.21851024,-0.2627562,0.15452519,-0.4001832,0.5134041,0.521881,-0.19548689,0.20856273,-0.010436389,0.32943177,-0.68747604,-0.46110955,0.8610155,0.2806309,-0.6666449,0.112140164,-0.24846959,-0.5795,0.038286425,-0.8465532,-0.27941632,-0.011473775,0.7739372,-0.74375427,0.021311764,-0.12016944,-0.09864102,0.29408956,-0.081280574,-0.08926749,-0.2873493,-0.16346183,0.22501406,0.20326817,0.50718564,-0.055305265
K1J5U0ZYWFhTcUE3NUV4eFRJc1Q3QT09,0.43432912,-0.24084795,0.044956725,-0.056267813,-0.25735557,-0.0036762422,0.15080695,-0.20818026,0.41344854,-0.22245176,-0.23465076,-0.4223858,0.09618958,0.043394092,-0.11956589,-0.030245777,-0.11560831,-0.17523168,0.058085855,0.124873154,0.09032517,0.16844153,0.016119469,0.10177462,0.2037234,0.03246547,-0.067598246,0.1357282,-0.12438336,0.05035472,0.063266344,0.0086034555,0.11688533,-0.17476098,0.21876435,-0.32427302,0.21098861,0.11606724,-0.22772752,0.31166804,-0.016365198,-0.14605206,-0.2629962,-0.19105178,-0.11603697,-0.30521876,-0.01722824,0.22399479,-0.15142441,-0.39345625,0.09330053,-0.30147904,0.02455239,-0.2022199,0.075982414,-0.3994748,-0.09821798,0.1800033,0.26678866,0.08311663,0.012650578,0.11587752,0.30415335,0.18212415,-0.1872578,-0.27286968,-0.05976743,-0.33101085,0.09305846,0.20381209,-0.0784097,0.37119603,-0.03749761,0.081457734,-0.26558414,-0.2692104,0.58829045,0.2326746,-0.12606053,0.06804511,-0.57455164,-0.0012474499,0.1049348,-0.680686,-0.10940041,-0.14578708,0.37568155,-0.2908812,-0.0026173694,-0.31853536,-0.21369265,0.34853217,-0.07884161,0.09717618,-0.09836275,-0.10102947,0.060068265,-0.047945943,0.5541278,-0.018283438
K1NBL3RvVTZPL2UzNmdXbXY1UzlzUT09,0.25339463,-0.4388581,-0.09043039,-0.5450392,-0.08773545,-0.0119251255,0.15929428,-0.22042581,0.5579789,-0.3803516,-0.18540993,-0.9670414,0.26868916,0.10095426,-0.36630696,0.42389274,-0.44308677,-0.29611182,0.04804361,-0.03295272,0.62298644,0.77583945,-0.48437706,-0.21393618,0.20422857,0.28681284,-0.34983146,0.26965144,-0.26388022,-0.046293084,0.13148859,-0.5463301,0.5573606,-0.19851488,0.6136173,-0.36666793,0.09307037,0.08332305,-0.080276914,0.7527172,-0.28601122,0.03904,0.095251404,-0.1934115,-0.1536728,0.31970885,0.39691895,0.41072196,0.07603282,-0.6924098,-0.49025822,-0.19432038,-0.76993144,-0.031407494,0.07994857,-1.1064341,0.705812,-0.022352654,0.6051055,0.26183906,-0.26113322,0.88489926,-0.254836,0.7209734,-0.41122526,-0.10674951,0.507325,-0.25143734,0.39719492,0.57752216,-0.69849145,0.21470287,0.28308338,0.2280896,-0.37376672,-0.1113229,0.27215368,0.22095725,-0.6774844,0.41590968,-0.22311771,-1.1681855,-0.1981796,-0.3801142,-0.03225837,-0.15565667,0.5738505,-0.7767445,-0.3466903,-0.7253441,-0.28370428,0.058884613,0.21462849,-0.013207935,-0.25869638,-0.6136714,0.079733774,0.2112319,0.44888026,-0.32792512
K1Q4aGF0eUQ2eDJzU24wc2E0aXBUZz09,1.0299227,-0.30248258,-0.30010182,-0.021886542,-0.14848821,-0.12339933,-0.5352759,-0.08410295,1.125136,-0.13549654,0.0022118133,-0.7169909,0.42637965,-0.09590254,-0.4466699,0.4292248,-0.6973569,-0.18394205,0.20574485,-0.20899984,0.80489635,0.36487237,-0.5338768,-0.20997581,0.26554224,-0.2305596,-0.69331926,-0.17426147,-0.82390696,0.44674167,0.0561226,-0.58854544,0.85324043,-0.3637898,-0.26350257,-0.24452367,-0.499711,-0.044048365,0.019075613,1.2277232,-0.42313406,-0.02099481,0.05280854,-0.0010672788,-0.5120793,0.19053434,-0.23172314,0.17466995,-0.26009074,-0.48417902,-0.3851274,-0.24039759,-0.5662865,-0.0031599926,-0.08446375,-0.98281574,0.20038739,-0.00058576436,0.15466596,0.32262093,-0.45368758,0.633277,-0.26953903,-0.08453436,-0.34406537,-0.3680169,0.25151256,-0.28985807,0.28558168,0.63856786,0.116993494,0.6538909,0.31362316,0.16258582,-0.35896808,0.035700228,0.319572,-0.38035098,-0.35786852,0.61728716,-0.37846908,-0.6762758,0.23676418,-0.08765364,-0.3963928,0.085846774,0.73357403,0.15566672,0.86858183,-0.25905114,0.004115236,0.082500085,0.34207723,0.1171842,-0.09420146,-0.5479651,0.46435103,0.24959932,0.46602815,-0.08726942
K1QwSSs1WkNxbW80T2R2VTljcFFVUT09,0.89838517,-0.63314384,-0.19664888,-0.5107572,0.07382351,-0.82707816,-0.051243518,-0.17576887,0.14517953,-0.37402213,0.13060308,-0.7264587,0.5400438,-0.21669154,0.13174763,0.17435062,-0.55954146,-0.4230281,0.44670817,-0.16175824,0.3333573,-0.07207444,0.5995585,-0.47323546,0.58870417,0.3615697,0.115282506,-0.01468686,-0.21545246,0.9542897,0.62692875,0.0062430217,0.14050439,-0.39015025,0.4783869,-0.805137,-0.18204252,0.04236306,-0.22227296,-0.24298555,-0.43917164,-1.1286135,-0.7363846,-0.07073072,0.2409839,-0.61993295,-0.54860014,-0.08619587,-0.08780399,-1.0168568,0.8701652,-1.1036763,0.18215114,-0.19535676,-0.17919584,-0.6334268,-0.59847474,0.055020507,-0.4214803,0.23022433,0.36637184,-0.20241058,0.18234982,-0.12718819,-0.21772768,0.093278,-0.48101693,-0.6083104,0.0267305,0.40233618,0.1994228,0.8981607,-0.19637942,0.5062843,-0.4936468,-0.5674538,1.2145959,-0.205043,-0.1590112,-0.046646845,-0.9950982,-0.34913892,0.5036814,-0.86771715,-0.15623382,-0.25576952,0.2912199,-0.4066235,0.67405564,-0.09167245,-0.110484436,0.5601775,0.070414715,-0.3436177,0.08944169,-0.5401215,-0.2309614,-0.591576,1.1719666,0.22463322
K1ZQaitEcUFxdHFtaWU0VHBZbHRKUT09,1.3262153,-0.7492581,-0.3747643,-0.2394116,-0.21202834,0.43151477,0.08471678,0.06498822,0.53312993,-0.42510363,-0.64010656,-0.73159796,0.26682284,0.003975358,-0.38582006,0.10931287,-0.092085585,-0.30561107,0.23091678,-0.62839496,0.041803196,0.40359074,0.5239874,-0.1414514,0.3640015,0.2548491,-0.13479373,0.27981374,-0.29569796,0.2332518,-0.07995831,0.5293177,0.1644653,0.20435336,0.0101167755,-0.26720178,-0.22246286,0.46467832,-0.07389853,0.3942943,0.068953164,-0.507014,-0.8447024,0.35129288,0.12857561,0.025245748,-0.43894365,0.14107528,-0.024015797,-0.9179416,-0.25380093,-0.58001065,0.82638067,-0.8911117,-0.196264,-0.5117616,-0.30345592,0.12898764,0.42106348,-0.080999345,0.17775723,-0.40941888,0.478456,-0.583608,-0.4421249,-0.22006197,-0.29605734,-0.82114017,0.31944388,0.47772545,-0.155421,0.2703807,0.2771962,0.016495423,-0.38617933,-0.5631976,0.6077993,0.09637283,0.066699035,-0.553127,-0.825042,-0.13247964,0.022345899,-0.8105091,-0.35529396,-0.11905547,0.5698462,-0.024958458,0.040123753,-0.79312176,-0.031675484,0.21262285,-0.4147878,0.2127187,-0.10440241,-0.5747949,0.20425828,0.4189533,1.1075251,0.36426854
K1dSQTlGNzVlSWZzWU5iN1ZnOVlBQT09,0.4991742,-0.5625641,-0.62272924,0.052914184,0.54215145,0.007931974,-0.23937912,0.6943059,0.20356756,0.39451206,-0.21821721,-0.63145465,0.6720655,0.30701947,-0.1129019,-0.18988144,-0.9629784,-0.6134408,0.6369594,0.40056232,0.26403722,0.32900128,-0.014910907,0.16272806,0.3452876,-0.12478852,-0.8567925,0.0048864335,-0.62063307,0.30982372,0.20082782,-0.7587166,0.10578013,-0.34325162,0.18488085,-0.5690419,-0.7655327,-0.37332955,0.5945519,0.73170906,-0.8282048,-0.5223077,-0.39879322,-0.21261686,-0.7416896,0.27949318,-0.49598253,0.12469592,-0.0137920445,-0.51505303,0.24416761,-0.39246717,-0.08021756,-0.089527965,-0.3872806,-0.81150264,0.21656285,0.12878126,-0.09842176,1.0861268,-0.8414523,0.517109,0.041264955,0.30225968,0.27749458,-0.55097353,0.4628252,-0.7146215,0.5645457,0.006729404,-0.044877917,0.38702622,0.31526577,0.16550004,-0.45951843,-0.3428786,0.7019083,-0.071875274,-0.7296831,0.8304499,-0.34598926,-0.49689755,0.27402192,-0.43273234,-0.5154014,0.10456956,1.0088862,-0.14547706,0.7520726,0.2591844,-0.115912415,0.073288284,0.068701796,-0.4075851,0.47750306,-0.764239,0.55809385,0.5392477,0.7133262,-0.14595331
K1dlSFNGZS82UHdXYVpyZVVocHNTZz09,1.0052664,-1.1147792,-0.5257272,-0.94942456,0.37429392,0.44150805,-0.026563162,0.2936902,0.2893293,0.09772913,-0.41952354,-0.3829247,0.3722522,0.41280136,0.01824684,-0.30071455,-1.3696221,-0.12165608,-0.13988449,-0.32484025,-0.14746076,0.27228498,0.3313846,0.06307153,0.8851226,0.28385407,-0.8327842,0.26278454,-0.3707778,0.05027337,0.43017778,-0.0055888416,-0.15260702,0.043427635,-0.07109107,-0.36888197,0.050667547,-0.28600448,0.12448706,0.6046721,-0.73339856,-0.5272671,-0.28961855,-0.1864023,-0.40522304,0.27243906,-0.8608208,-0.26694822,0.14004833,-1.0029355,-0.042812012,-1.3130366,0.331899,-0.18416587,-0.5203542,-0.71770114,-0.18515845,-0.12803307,-0.049127407,0.75457364,-0.520471,0.81839144,0.33545423,-0.2784999,-0.045875713,-0.5166558,0.09627389,-1.2822752,0.34909725,-0.5221468,-0.3268237,0.5677175,0.56332445,0.5944599,-0.45898455,-0.58858764,0.9817626,0.1235384,-0.44741884,0.8273913,-0.22043732,-1.3558964,0.5537461,-0.8816,-0.35965088,0.07869236,0.8835491,-0.041715134,0.25136024,-0.117995724,-0.48921472,0.0062785624,0.1743355,0.06441523,0.60191756,-1.0569994,0.5880086,0.35905313,0.70262307,0.099686526
K1hvS3ZEVmRmOUVYdlo3UEdBamcvZz09,0.68743455,-0.98876387,0.27266413,-0.43477488,-0.4028047,-0.22267748,0.3841444,-0.24520445,0.5010065,-0.18628263,-0.43795183,-0.50257766,0.6019462,0.15068834,-0.02298418,-0.041997816,-1.4314076,-0.06173924,0.07913291,-0.18257782,-0.047489643,-0.019175155,-0.21340959,-0.53558695,0.65362674,0.23469822,-0.41710064,0.19305696,0.12600125,0.12823595,0.32412794,-0.6426709,0.9434981,0.023524305,0.74548215,-0.46289736,-0.07273298,-0.3635878,-0.5089913,0.8241863,-0.17218886,-0.68676597,-0.1851593,-0.4845874,-0.5044729,-0.666987,-0.24071047,-0.26492193,0.30772063,-0.5472847,0.101862535,-0.86452454,0.26883942,-0.3055336,-0.3870729,-0.8800693,0.2261335,0.11545857,0.18600117,0.3323577,-0.10207089,0.77040464,-0.23256382,0.28040084,0.1340876,-1.0483682,0.013601373,-0.57087815,0.43358973,0.4697625,-0.6811655,0.19381452,-0.2550402,0.21304278,-0.6957336,-0.3939632,1.0201406,0.13584822,-0.011372515,0.29037768,-0.7577344,-0.32002398,0.43884316,-0.9292561,-0.11627096,-0.10999092,1.1922991,-0.6387962,0.033774853,-0.723888,-0.17109504,-0.3386219,-0.000330363,0.5045444,-0.14646193,-0.4783785,0.7116323,0.32937238,0.46306428,0.22115661
K1o5aWZIejJWaHYzdFRyL3k1bGh1QT09,0.47371572,-0.20680663,-0.25556853,-0.2017969,-0.076346576,-0.036225505,-0.34579465,0.07277715,0.5827479,-0.119461246,-0.017322078,-0.44903153,0.1320483,0.14771701,-0.35502964,0.28942567,-0.5250961,-0.2431964,0.259969,-0.015925623,0.49478978,0.20337395,-0.4205411,0.0037877408,0.19944371,-0.062650286,-0.50693345,0.011787624,-0.5490547,0.20929343,0.1782054,-0.3616469,0.41028512,0.006979962,-0.03417071,-0.37148497,-0.13989134,0.064077176,-0.16563584,0.7500585,-0.59914535,0.1295399,0.18633862,-0.16224311,-0.52968156,0.09127619,-0.22092332,0.38133729,-0.23093615,-0.36778054,-0.10518482,-0.46927407,-0.32149833,0.038151942,-0.06315956,-0.6752366,0.19887519,0.027792659,0.052496895,0.2488767,-0.35398522,0.65465367,-0.12607281,0.22809611,-0.23671487,-0.35803473,0.19553985,-0.37074247,0.23693153,0.39088547,0.24656609,0.6123994,0.31282014,-0.10466982,-0.1888392,-0.26699072,0.26023903,-0.18416043,-0.42609704,0.4967865,-0.31506526,-0.48400587,0.066285186,-0.040391706,-0.30774918,0.118746035,0.56431115,0.014392475,0.56879884,-0.025494767,-0.13427883,0.15963203,0.23694003,-0.0013016254,0.047694873,-0.5498743,0.09166762,0.27061912,0.4815948,-0.27711493
K20wRk4zNTRtV0ZTenkzQ2pSTFYvZz09,0.877426,-0.731018,-0.3419262,-1.3375789,-0.66616213,-0.6080124,-0.22973749,0.02232392,1.3789226,-0.39916328,-0.82845366,-1.8896291,0.23953453,0.029449787,-0.81962526,1.2424232,-0.40989608,0.83526707,0.43709177,0.8555435,0.52294785,1.891927,-0.052931957,-0.6373578,0.53764206,0.16184285,-1.0604839,0.3686578,-0.7972332,1.2141229,0.52204525,-0.13209108,2.3438344,0.10629387,-0.36133575,-0.08489585,0.2547292,0.42033905,-0.06806158,1.8964145,-0.7946158,0.2523698,0.018866805,-0.2894819,-0.56590754,-0.31223676,1.0243253,0.3985967,-0.359608,-1.1604949,0.29976365,-0.13694966,-1.873615,0.90145576,-0.6775788,-1.4328959,1.0064974,-0.117433414,-0.08040535,0.5216113,-2.36214,0.6731278,0.8843168,1.4777492,-0.976488,-1.0003767,0.76960653,-0.49129534,0.946782,0.762601,-0.52762514,1.5961782,-0.47891968,0.8172296,-0.39297703,0.6518249,0.31264523,-0.46141475,-0.9138361,1.4861124,-1.4230897,-0.5806057,-0.297752,-1.206424,-0.10308291,-0.8778349,0.9206151,-0.2048054,0.06392444,-1.8829906,-1.9952886,-0.32662258,0.14939804,0.3263673,-0.75754106,-0.6709114,1.805877,0.45296055,0.6268057,0.23307839
K25GcVJVbVlTbUdDNWRCQks5RFNCZz09,0.44695446,-0.31861657,-0.17652148,-0.3653935,0.0021783288,-0.059408993,-0.13573427,-0.1487612,0.60905534,-0.2598782,0.029054,-0.6354453,0.04933713,0.027268907,-0.26260254,0.074477434,-0.19226979,-0.08846689,-0.09721563,0.07099351,0.3135955,0.3106766,-0.1396107,-0.21540351,0.22948845,0.09624863,-0.26744598,-0.009119147,-0.35956526,0.073365845,0.15704013,-0.14554602,0.19944195,-0.13129379,0.11769917,-0.015342381,-0.027330324,-0.058749095,-0.11118433,0.64208573,-0.14253901,-0.10498976,-0.12199647,0.17138888,-0.0767264,-0.06679947,0.030654782,0.0046140216,0.038518947,-0.49675342,-0.2864625,-0.25326455,-0.3466666,-0.06432899,-0.09936324,-0.587228,0.15623942,0.15160646,0.14928244,0.21654518,-0.3807226,0.27048662,0.032506075,0.20049922,-0.28142652,-0.2374921,0.17712764,-0.13936643,0.3980876,0.35976624,-0.3378886,0.51148546,0.28212687,0.18176132,-0.09462241,0.044546623,0.2159367,0.17764173,-0.02043554,0.3946104,-0.39945948,-0.66165257,0.21131761,-0.33431542,-0.22437908,-0.22471093,0.6117514,-0.20195572,0.359761,-0.64780265,-0.017798943,0.040092576,0.21510875,-0.08299477,-0.20042993,-0.37599543,0.19310363,0.042030334,0.4519775,-0.009771623
K2J5ekJJRDZQUUc0RlcyWWxhMEtwQT09,0.24601908,-0.24008298,-0.11360844,-0.17108439,-0.12362514,0.04111274,-0.3023205,-0.02089121,0.39091825,-0.28448313,0.11728331,-0.33329487,0.076958105,0.20197634,-0.44857618,0.15334097,-0.08550776,0.06454066,0.31857342,0.11631365,0.5186144,0.2925234,-0.55364954,0.19916487,0.17676719,0.07253691,-0.28600353,0.3018016,-0.31132585,0.06514536,0.2778674,-0.19792299,0.32688522,0.13166372,-0.045673795,-0.28409857,-0.0009661022,0.22516261,-0.29676718,0.7292789,-0.52153766,0.23917292,0.28518996,-0.084821984,-0.36207908,0.12732802,0.067789935,0.3954168,-0.41036734,-0.14625655,-0.11875774,-0.38814846,-0.29104805,0.06513978,-0.050731268,-0.6361736,0.15831502,-0.004496541,0.030823287,0.3026495,-0.27536052,0.45325,0.13743559,0.36589393,-0.41684264,-0.4284087,0.09821223,-0.44569302,0.19945502,0.42070675,0.18006606,0.5007261,0.07490425,-0.14471115,-0.29552433,-0.23086381,0.14703767,0.07349425,-0.22142981,0.381093,-0.38844845,-0.24841902,-0.05371162,-0.17992188,-0.19042315,0.012890724,0.48989868,-0.061831985,0.32413998,-0.11069162,-0.3958188,0.24676044,0.06896409,0.09402676,0.042140253,-0.199276,0.013163395,0.2518078,0.4612517,-0.20251401
K2JOeE1PU1I1TXVHaTZwVTNEUTNvZz09,0.82880014,-0.17471233,-0.2861048,-0.023993792,-0.38808534,0.24510095,-0.07308624,-0.13973092,0.5381758,-0.3581708,-0.27374497,-0.4679077,-0.13050793,0.41174698,-0.06558309,-0.060917504,0.13902523,-0.003976636,0.25327575,0.16243887,0.41675687,0.41915298,0.29419363,0.17852922,0.19250761,0.16719517,0.06905563,0.33924195,-0.16532007,0.12574054,0.0032538404,0.3872712,-0.09954692,-0.06717947,0.024323886,-0.30931672,0.27540013,0.2804956,-0.23671481,0.020689353,-0.02452664,-0.45328614,-0.44644734,-0.010496973,-0.11580945,-0.09403228,-0.22485307,0.29510176,-0.39681247,-0.8008174,0.29815766,-0.5292836,0.300566,-0.7999072,0.0880704,-0.31082246,-0.65383726,0.46927553,0.38117337,0.119970575,-0.10332101,-0.21794893,0.7180899,-0.21199884,-0.42820242,-0.12214023,-0.60573965,-0.7312774,-0.2839346,0.34547892,0.21907914,0.7487405,-0.004171608,0.15917332,0.011989407,-0.23584414,0.79335773,0.19236802,-0.13913012,-0.4283295,-0.7178427,0.16086955,0.014523833,-0.830626,-0.35420197,-0.23999226,0.32146552,-0.2460447,-0.0045900196,0.12237404,-0.4435645,0.28322947,-0.30434713,-0.013507731,-0.037270512,-0.056689113,0.12602407,0.14367245,1.0012461,0.29559603
K2RBL3JlemVkMkc1ZXBUZ2Vock5KQT09,1.4834397,-0.54801935,1.0202227,-1.3769497,-0.41521734,1.1236887,-0.5532226,0.27987397,0.8458237,-0.9036974,-0.19965899,-0.889922,-0.6991186,1.2661315,-0.77488196,-1.1509442,-0.107039206,0.9665378,-0.4772847,0.09772683,-0.1288352,0.5225965,-0.39215103,0.90792954,0.8755383,1.4877121,-0.8046475,1.1509969,0.25384232,-0.64919865,1.2814639,0.82171065,-0.37616402,0.024736416,-0.2774743,-0.03106928,1.2383268,0.8572679,-0.8941751,1.2934141,-0.7635192,-0.32456666,0.25569057,0.04781439,-0.25712964,-0.25668985,0.47221583,-0.2085026,-0.6231007,-1.0402833,-0.42155394,-1.3102905,-0.4956889,-1.4289882,0.12388214,-1.220794,-0.059079416,0.6988608,-0.06320404,0.36805406,-0.7882475,1.576099,0.549246,-0.18931952,-1.200164,-1.3000948,-0.51038545,-1.8149936,1.0065196,-0.4525731,-0.4752559,1.6896359,1.0711105,-0.32716742,-0.32329273,-0.57906353,1.1094776,0.8567102,0.39289853,1.3143461,-1.6874272,-0.7353464,0.9462027,-1.7382921,-0.9759976,-0.8659012,1.607608,-0.92927027,-0.857763,-0.7059393,-0.83242947,0.06920332,-0.51382506,1.0029944,0.09051068,-0.3649953,0.23618315,0.3097412,1.0668442,-0.9368479
K2RFeGE3Q3BNY0c2dTgzayt2Zklidz09,0.6872099,-0.5571111,-0.11772833,-1.0732353,-0.6452298,-0.41368583,-0.13004068,-0.08162669,1.033218,-0.4879587,-0.66118276,-1.3503749,0.124614134,-0.086698115,-0.783485,0.8143104,-0.09629603,0.6376295,0.2091435,0.75634724,0.5126927,1.5192492,-0.18672769,-0.23134069,0.38048148,0.28472778,-0.66950184,0.50934607,-0.48999172,1.0364577,0.46626475,0.014973007,1.7328717,0.029212564,-0.30398306,-0.23549981,0.3399966,0.43189654,-0.03090026,1.408519,-0.4998211,0.18506853,-0.15167117,-0.18066522,-0.21743155,-0.24731643,0.7281152,0.34092402,-0.29990342,-0.9321441,0.26375812,-0.036079116,-1.5066749,0.5634845,-0.41319737,-0.9245628,0.700344,0.10378963,0.059946876,0.45171663,-1.8411953,0.35441926,0.8751463,0.9972153,-0.95083994,-0.8924724,0.44946486,-0.44590402,0.7261413,0.749638,-0.38867417,1.3127197,-0.30396017,0.5948629,-0.36024722,0.40991664,0.2665713,-0.47106886,-0.5306896,0.9979919,-1.1836426,-0.4425227,-0.28077376,-0.9984514,0.03592201,-0.62299246,0.8618688,-0.28494516,-0.10858851,-1.3627088,-1.7173092,-0.12934646,0.0449551,0.34870392,-0.7454623,-0.42130756,1.2736877,0.51584196,0.6871045,0.22861728
K2RTaTdMSFhwVlBBQ2FUUC82VnRnUT09,0.14202793,-0.6166324,-0.6744221,-0.20309362,0.0598694,-0.41994947,0.0951625,-0.08065405,0.512791,-0.278473,0.108545974,-0.35690823,-0.0056179883,-0.16553886,-0.59140694,0.22995317,-0.1557622,-0.051378228,0.12778278,0.15548946,0.5624474,0.0712527,-0.89873,0.061615042,0.20527694,-0.061326474,-0.2541508,-0.098964706,-0.52837056,0.44536376,-0.025332093,-0.72558194,0.36942148,-0.29453105,0.079145946,-0.4936468,-0.08879042,-0.15445733,-0.06758388,0.896634,-0.5896983,-0.08117398,-0.15181687,-0.081004426,-0.20370439,-0.11588762,0.29743177,0.6242876,-0.12164895,-0.73185676,-0.22714874,-0.2624933,-0.24974644,0.22789633,-0.01263463,-0.52120537,0.3767116,0.33675194,-0.05404712,0.6092746,-0.4849063,0.51781714,-0.2032089,0.5587861,-0.3517058,-0.49768347,0.45655662,-0.13465509,0.3836543,0.8030348,-0.090449706,0.5987307,0.29777503,-0.075844154,-0.40221524,-0.40146112,0.2980437,0.5027997,-0.42482924,0.3252286,-0.7311905,-0.48609295,0.4053324,-0.33795285,-0.083584376,-0.022303378,0.8188952,-0.07746414,0.7002533,-0.34142485,-0.30008113,-0.14799288,0.10447971,-0.16126409,0.20652223,-0.22318602,-0.042107865,0.4084813,0.5134611,-0.05368148
K2lvOVQ1SmZxdUx1V294dUQzejVPUT09,0.46955672,-0.3715245,-0.10931682,-0.5990819,0.09789643,-0.008445306,0.08843028,0.15258025,0.4800631,-0.26306725,-0.19277383,-0.46635967,0.1363992,0.193016,-0.24473573,0.17912248,-0.2605929,0.07850831,-0.037895765,-0.13805218,0.37306988,0.40930635,-0.051885854,-0.3181972,0.16429405,-0.028190931,-0.07702117,0.3376664,-0.075594805,0.13477407,0.28547135,-0.35503456,0.3818982,0.14435278,0.1632588,-0.059363604,-0.07153167,-0.0954936,-0.009077201,0.7013241,-0.4331156,0.2199298,-0.08648789,-0.30257356,-0.0792718,-0.02636262,-0.021298077,-0.16338542,0.16647297,-0.41392344,-0.04359264,-0.418086,-0.12956676,-0.18161973,0.013676856,-0.5358302,0.36793286,0.019427173,0.10506629,0.52240115,-0.377845,0.31227627,0.0029838337,0.39252865,-0.26207078,-0.20740756,0.074724145,-0.23980272,0.50007075,0.31845963,-0.1652938,0.46257308,0.076462284,0.0687542,-0.15389135,-0.22622052,0.41458392,-0.042293537,-0.40231276,0.47054258,-0.28484723,-0.6636171,-0.020920536,-0.2566985,-0.09987377,-0.14353074,0.52933294,-0.363396,0.0059752483,-0.40646732,-0.21519084,0.007797509,0.3308452,0.1508412,-0.041148968,-0.4812563,0.25538808,-0.03820084,0.36388257,-0.012934082
K2o2SmJKU2dqcWdOVDJmcktNV1c2dz09,0.25338423,-0.5046753,-0.16483793,-0.13635553,0.7103636,-0.106406026,0.22231251,0.6224535,0.15845436,0.4133695,-0.17535897,-0.7576644,0.6407741,0.5020435,0.26272687,0.02723418,-1.3975925,-0.8053548,0.657232,0.20719022,0.57748467,0.6163701,0.05880121,-0.37079814,0.11239633,-0.044206947,-0.7513386,0.52418387,-0.037691012,0.43454608,-0.18976164,-1.0351622,0.57555246,-0.3526553,0.7764123,-0.48331347,-0.41394722,-0.8802263,0.37239394,1.0188432,-0.21842395,-0.8597534,-0.3824925,-0.39545062,-0.5783411,0.2967229,-0.076084875,-0.41536704,-0.02170173,-0.29813927,0.34958845,-0.4831373,-0.01244049,-0.7362482,-0.5759584,-0.8925369,0.421327,-0.16582471,0.091010734,1.5689435,-0.47029743,0.9592802,-0.12845805,0.41932818,0.5074757,-0.34715426,0.23008944,-0.7645225,0.6986359,0.6606127,-0.36724466,0.44465208,-0.15115815,0.3747186,-0.7167096,-0.06629352,0.76041746,-0.07488617,-0.47476035,0.9256778,-0.57781166,-0.5006586,-0.22385913,-1.1132094,-0.53895974,-0.111720234,1.0447863,-0.42807353,-0.08758037,-0.19552167,0.15402456,0.18187349,-0.004646019,0.048003547,0.4735859,-0.64801294,0.30991566,0.3306892,0.5731648,0.13369972
K2t3RFk0czVaVmZkWUdhSlcrZVhzQT09,0.37481084,-0.22362275,0.10968655,-0.254436,-0.15704656,0.11589179,-0.014991239,-0.050058138,0.29456905,-0.18097492,-0.031133706,-0.31433165,-0.009627919,0.23861237,-0.19481094,-0.15967453,-0.06434134,0.046166908,-0.057960343,0.049069587,0.0825811,0.15682536,-0.18894883,0.049874723,0.16920964,0.156559,-0.101518415,0.11439246,-0.018686587,-0.017430684,0.20572253,-0.021667406,-0.008225471,-0.112802744,0.03450546,-0.111394264,0.09479686,0.022637198,-0.14539637,0.27466986,-0.14556566,-0.16535686,-0.1193398,-0.021721877,-0.08146871,-0.13006401,0.10391881,0.02378644,-0.106619455,-0.36386833,-0.08034732,-0.19949917,-0.053269777,-0.29434347,0.092993736,-0.38496017,0.016030077,0.19494641,0.13517772,0.12963799,-0.1600845,0.17316419,0.057059914,0.011967468,-0.19980349,-0.23482628,-0.11241271,-0.35069585,0.21910799,0.06952614,-0.13435729,0.3575665,0.16297798,-0.0030663412,-0.25680375,-0.2181565,0.33183882,0.25886357,-0.019212315,0.17489071,-0.40630206,-0.25203267,0.10582135,-0.44916245,-0.20877874,-0.15291236,0.42293993,-0.29828075,-0.0017962357,-0.23380105,-0.107947774,0.120701134,-0.13318531,0.11964687,-0.06400018,-0.13219386,0.12816072,0.08033266,0.3769333,-0.09068485
K2tTcVVNRFpicEl1cnRiTWRRSTg4QT09,0.33097988,-0.45820922,-0.09192991,-0.3801609,-0.019400783,-0.1735594,0.08412647,0.09775139,0.5767255,-0.3281617,0.02643893,-0.61723465,0.17128997,0.1843003,-0.14823817,0.1416251,-0.20870693,0.23793162,0.08974974,0.22604832,0.24747986,0.31210062,-0.3169428,-0.30637872,0.3683846,0.025129959,-0.10196563,0.09188814,-0.19885549,0.055584952,0.40385807,-0.6081433,0.5317871,0.018571071,0.21413665,0.023246204,-0.020303428,-0.29852155,-0.19137253,0.7629341,-0.48602074,0.18563706,0.023438469,-0.42296365,-0.21830142,-0.2915136,0.13436818,-0.09579412,0.32335094,-0.49208724,-0.0032427558,-0.51737285,-0.36031932,0.05114484,0.13563138,-0.74339443,0.56099534,-0.016498238,0.036692657,0.54693204,-0.7138508,0.35367092,-0.14272846,0.62028354,-0.15931158,-0.36669543,0.1792361,-0.05277439,0.48997855,0.37402987,-0.21222939,0.46253288,-0.051854372,-0.04185402,-0.28333318,-0.105658,0.4016826,0.05833569,-0.4544559,0.41923654,-0.5303214,-0.57857925,0.19404416,-0.50691646,-0.28693187,-0.21845013,0.67417485,-0.38800123,0.33309484,-0.51880836,-0.24778973,0.039409027,0.2702915,0.011350011,-0.27742523,-0.38423732,0.6073206,0.042060338,0.30775955,-0.10111274
K2xzcXZHdDBFR0JWQ1R6UFFCZXNwUT09,0.83314097,-0.47237587,-0.1863206,-0.3175543,0.17915118,0.04864397,-0.084681354,0.14916895,0.6705136,0.04393415,-0.2281406,-0.51981044,0.2610831,0.26622713,-0.11621472,0.059207913,-0.60696405,-0.1963667,0.1551616,-0.1574979,0.25115108,0.36111188,0.022983225,-0.08519194,0.39595014,0.12687872,-0.4608804,0.08732403,-0.47498435,0.12162004,0.19248986,-0.09060271,0.31422076,-0.14933135,0.0073114308,-0.18121865,-0.13400078,-0.20629883,0.015650017,0.54221344,-0.22675413,-0.43499386,-0.19671044,0.12715177,-0.393026,0.20563011,-0.22810331,0.019439446,8.333542e-05,-0.5921742,-0.029690027,-0.590564,-0.005884387,-0.3713287,-0.12190733,-0.6784986,-0.04388288,-0.057979807,0.21244246,0.44767696,-0.346963,0.3672962,0.011804456,-0.23694244,-0.2247476,-0.19309007,0.00939988,-0.49619177,0.22286391,0.18153101,-0.1597114,0.4108473,0.30090904,0.3902191,-0.102848954,-0.11788962,0.49083063,0.1236767,-0.4131917,0.3116194,-0.2875428,-0.55201703,0.16933495,-0.590332,-0.30336332,-0.26020798,0.48994476,-0.09492107,0.14376993,-0.15505001,-0.14914407,0.11677597,0.1917799,-0.038834687,0.31564572,-0.528347,0.19148268,0.19339676,0.48069695,0.0020087333
K3AxKzhqZjZ4YkVydXcybExPYUxqUT09,0.0,0.0,0.0,0.0,0.0,0.0,0.0,0.0,0.0,0.0,0.0,0.0,0.0,0.0,0.0,0.0,0.0,0.0,0.0,0.0,0.0,0.0,0.0,0.0,0.0,0.0,0.0,0.0,0.0,0.0,0.0,0.0,0.0,0.0,0.0,0.0,0.0,0.0,0.0,0.0,0.0,0.0,0.0,0.0,0.0,0.0,0.0,0.0,0.0,0.0,0.0,0.0,0.0,0.0,0.0,0.0,0.0,0.0,0.0,0.0,0.0,0.0,0.0,0.0,0.0,0.0,0.0,0.0,0.0,0.0,0.0,0.0,0.0,0.0,0.0,0.0,0.0,0.0,0.0,0.0,0.0,0.0,0.0,0.0,0.0,0.0,0.0,0.0,0.0,0.0,0.0,0.0,0.0,0.0,0.0,0.0,0.0,0.0,0.0,0.0
K3EvU1FmSmFqK3JDZ2xvak9aeHFVQT09,0.5523139,-0.49773502,-0.46194068,-0.3180906,-0.19707751,0.14040019,-0.997503,0.3734688,0.9509814,-0.48509273,0.059844468,-0.665265,0.08267897,0.53831303,-0.80132157,0.41072455,-0.98434156,-0.09845004,0.6551315,0.028296083,1.0095316,0.5342669,-1.0000876,0.3872136,0.40145186,0.24291237,-1.1753589,0.3973781,-0.9455256,-0.06873415,0.34646598,-0.5404478,0.7533451,0.44463614,-0.03186678,-0.7186188,-0.1580841,0.34453893,-0.69708157,1.4804015,-1.683483,0.51110095,0.83274627,-0.34012964,-1.5432035,0.5373195,-0.37554374,0.94688946,-0.53230584,-0.46395263,-0.30462912,-1.2880654,-0.9369387,0.34106398,-0.27685156,-1.5753597,0.5552667,-0.1436386,0.104096256,0.5101189,-0.7885855,1.7962679,-0.13063487,0.4932425,-0.5907114,-0.8101706,0.55853826,-0.7443726,0.27670196,0.5991959,0.69419616,1.3677002,0.4406381,-0.4608384,-0.33609626,-0.37711015,0.09101564,-0.5448211,-0.7808037,1.0215961,-0.19918413,-0.74025893,0.13440622,0.15611662,-0.73588127,0.39065742,1.0736858,0.12589414,0.99803346,0.22149403,-0.6536246,0.25902325,0.6521049,0.048716422,0.1292787,-1.0714725,0.2772347,0.6751686,0.92731094,-0.7906303
K3FsUVRUdkswZEZpRmxCWk5CRDVVUT09,1.6908851,-0.7779642,0.28581235,-0.37479028,-0.30421326,0.90679556,-0.5677831,-0.13965397,0.694894,-0.45723832,-0.38520655,-0.5264655,0.49222705,0.22988409,-0.7389975,-0.16906096,-0.78447574,0.08281587,-0.7225857,-0.2134091,0.19567004,0.22362567,-0.56386495,0.4076227,-0.12707695,0.48808116,-0.3421225,0.85920346,-0.41980028,-0.10950745,1.0327151,-0.14634587,-0.081038095,0.056145996,-0.3087217,-0.60580623,-0.35425615,0.463033,-0.14999183,1.4512484,-0.82978964,0.3395609,0.7719683,-0.3338184,-0.80383813,0.5964678,-0.20586212,0.032457385,0.2821168,-0.41286144,-0.35762337,-0.6024996,-0.7804949,-0.3358304,-0.3231525,-1.5708468,0.016985236,0.594335,-0.07282206,0.3052163,-0.16826348,0.9241926,-0.17446773,0.15082592,-0.86418957,-1.0772817,0.4714023,-0.59918755,0.80588317,-0.04271199,0.33746943,0.9615244,0.8652307,-0.8069026,-0.39237294,-0.45270756,0.584428,-0.063133635,0.014743871,1.054711,-0.3766068,-1.2772938,-0.147736,0.36305937,-0.12823927,0.24338481,1.0002505,-0.6219492,0.4102655,0.073079444,-0.5000331,0.2779479,0.89484775,0.8404778,-0.344761,-0.7090364,0.3638829,0.6213326,0.7595242,-0.5998833
K3JJNkRCUFRMM3VTb096NVNQdS9DQT09,0.9528479,-0.46556473,-0.5895783,0.21889952,0.19558577,-0.066755906,-0.45563447,-0.09782482,0.58125293,-0.094996765,-0.40445668,-0.5252041,1.4800991,0.75469315,-0.010187969,0.45513105,-1.4525741,0.024796724,0.4869632,0.055633627,-0.31771973,-0.023228899,-0.122304924,0.59534305,0.5625065,-0.19210379,-1.1213953,-0.96248764,-1.1215862,-0.769746,-0.14798266,-0.55770284,0.52256477,-0.21328993,-1.0013866,0.18404812,-0.5360398,-0.5981971,0.43845052,1.347079,-1.2992134,-0.03216281,0.50426394,-0.012309186,-1.377521,0.077010095,0.03574767,0.068428114,0.32368052,-0.9639963,-0.604146,-1.2018718,-0.30116928,0.5153409,-0.31513503,-1.327409,0.31270096,0.15688606,-0.082629964,0.06533282,-0.97237295,1.06488,-0.8963808,0.45472676,0.3475871,-0.6925912,0.57492095,-0.02678912,0.24521717,0.077687666,0.014882594,0.87785435,1.2451248,0.9108003,-0.84783864,-0.63995236,0.94680154,0.75060785,-1.2938347,0.3673027,-0.30405325,-0.35539845,0.9422651,-1.5339196,-1.17429,0.630525,1.0119817,-0.5603448,0.7050889,-0.55796725,-0.5315504,0.07706162,0.8159015,0.076245874,0.8822583,-0.66347545,0.9560277,1.0931313,-0.03041263,-0.3988369
K3JVMHdPWjdFRjFYcHpVZGlGRmw1UT09,0.028141994,-0.399955,-0.3645911,0.040114492,-0.20388895,-0.28863427,0.40796402,0.01565992,0.31899285,-0.055162113,-0.14500639,0.012230919,-0.16997479,-0.11083609,-0.111632235,0.13586108,-0.28426498,0.153543,-0.091178864,0.054240104,-0.003535121,0.0705089,-0.07293201,0.044546522,0.28318194,0.056496095,-0.2431335,-0.22778563,-0.24746583,0.12822069,-0.112500235,-0.38838,0.49845177,-0.18617499,0.09283103,-0.24145047,0.06510386,-0.10559053,-0.18696459,0.12571774,-0.075836666,-0.0946293,-0.06822777,0.10977722,-0.12824804,-0.253501,-0.035064902,0.24764457,0.14266296,-0.59233344,-0.023610098,-0.3766835,0.02002626,0.26653132,-0.30830047,0.002799199,0.17422928,0.2568317,0.06817629,0.16855489,-0.40931776,0.25531578,-0.014292745,0.19625755,0.03692972,-0.42403555,0.37298763,-0.13509071,0.009308956,0.2370943,-0.28573754,0.038659193,0.08166961,0.368824,0.014005803,-0.20433797,0.15144809,0.05284801,-0.070155784,0.013351413,-0.22495101,-0.10245893,0.5653687,-0.2974526,0.054643597,-0.050855067,0.6159923,-0.009108197,0.15123639,-0.27363437,-0.20714954,-0.29442996,-0.02569417,-0.36224684,0.09309056,-0.28335562,0.32636008,0.43811983,0.24547735,0.090089954
K3NHNitCb2NlR2VvUGE2TURtNFArUT09,1.0065049,-0.3725509,-0.34378982,-0.4426476,-0.00047848746,-0.013933845,-0.24866824,0.0008102134,1.2947128,-0.12673484,-0.1584421,-0.8837733,0.3697996,0.063495025,-0.49467823,0.6755891,-0.5296026,-0.093340725,0.23030889,0.032830138,0.7723664,0.59224236,-0.43753842,-0.245452,0.35824096,-0.2819226,-0.41788808,0.15653108,-0.8248278,0.2553449,0.35776177,-0.59158015,0.95149314,-0.15917315,-0.09789809,-0.3053807,-0.3597481,-0.033340212,-0.048720397,1.4070787,-0.63513356,0.33345115,0.12885413,-0.13868834,-0.521814,0.08002119,0.027697792,0.2191588,0.01996823,-0.5998421,-0.20567814,-0.27817062,-0.6956042,0.16832155,-0.15364681,-1.0918894,0.48786676,-0.10997406,0.12769434,0.45261005,-0.81490374,0.752189,-0.2676539,0.46866176,-0.52686787,-0.28151026,0.36915293,-0.3615116,0.7002713,0.70657885,0.06157793,0.8637946,0.22660017,0.12518902,-0.2835072,-0.06050764,0.4499149,-0.15715608,-0.79210156,0.7188144,-0.59221244,-0.86784506,0.20584685,-0.22273555,-0.34593552,0.021172691,0.6779568,-0.16494995,0.56987256,-0.34818375,-0.21136758,0.31517094,0.40104404,0.16646725,-0.12653916,-0.75090355,0.33989438,0.17165801,0.55525285,-0.23822494
K3NPWkhpeDZHVUxsSmtnRWo0MUthdz09,0.3924011,-0.29468372,-0.40600383,0.004486849,-0.055495907,-0.09177492,-0.4697673,0.011816342,0.80124855,-0.32587734,0.11057963,-0.4413631,0.3693081,0.30169582,-0.36449543,0.48667026,-0.4719402,-0.32529977,0.37435016,-0.0026287336,0.71641636,0.2721167,-0.692739,0.29645637,0.20840907,-0.16998617,-0.47335458,0.03216654,-0.73646516,0.089835756,0.24640794,-0.6406993,0.4670969,0.048894763,-0.13503495,-0.57537323,-0.17779225,-0.015463431,-0.29238376,1.0033464,-0.8834302,0.22172137,0.34110233,-0.34746614,-0.7750907,0.22789751,-0.05714995,0.477392,-0.18279879,-0.33484605,0.03009379,-0.7807775,-0.43480313,0.10941707,-0.10069913,-1.04598,0.30174,0.036726683,0.17640936,0.6825535,-0.49722543,0.77742267,-0.16479611,0.39131847,-0.25931033,-0.5470872,0.22755729,-0.5703957,0.092524834,0.6012484,0.5569187,0.8257105,0.31080773,-0.20893653,-0.26917863,-0.27066717,0.554969,-0.17025638,-0.5033611,0.39746037,-0.50219125,-0.4126258,0.08967542,-0.17796636,-0.45895824,0.32045457,0.6473117,-0.043629665,0.7883692,0.2454278,-0.28007993,0.3990245,0.61109954,0.22274987,0.16746628,-0.5467656,0.23181798,0.40202168,0.66990024,-0.41007936
K3R4NjVuOUtTY25ybXpYRitmQWdRdz09,0.43251806,-0.35670084,-0.18137498,-0.31507295,-0.12760304,0.014214736,-0.06017357,-0.118565105,0.28539282,-0.051575184,-0.05920381,-0.41386452,0.1296628,-0.09269217,-0.45094508,0.037042014,-0.11260293,-0.047993224,-0.1819479,-0.06661697,0.357901,0.026126435,-0.4881298,-0.14226532,0.04090738,0.08247803,-0.18201907,0.033259127,-0.21474557,0.35005006,0.08918878,-0.22106998,0.0873005,-0.24295434,0.018625636,-0.31688786,-0.21503107,-0.09817563,0.1256457,0.47904748,-0.27821144,-0.08031039,-0.21726198,-0.06300758,-0.07917623,0.040285133,0.11392578,0.2200655,-0.125743,-0.35556442,-0.25852355,0.08766898,-0.26092046,-0.02572695,0.008123508,-0.4950121,0.3153382,0.2725359,0.071823575,0.18316427,-0.25825614,0.17610271,-0.19764616,0.17922942,-0.28915906,-0.24165893,0.18702017,-0.058107853,0.4581769,0.32821828,-0.09421535,0.35493377,0.23328176,-0.11257366,-0.5002042,-0.20912656,0.054846056,0.25644678,-0.14721863,0.29223806,-0.29368496,-0.4392611,-0.029566955,-0.08182148,0.008804351,0.018530313,0.5623779,-0.24358626,0.28716427,-0.24247003,-0.13632041,-0.06688271,-0.028266221,0.06814849,-0.14073288,-0.19164124,0.036680706,0.2345123,0.31069264,0.021614697
K3RRZ3VzQ0NVY0xUUEJGek4ycyt1Zz09,0.4035919,-0.1734965,-0.39582348,0.12136598,-0.012907531,-0.09611476,-0.050074454,-0.07823386,0.33188412,-0.16961905,0.22297387,-0.30331585,0.29838312,0.28493,-0.23483248,0.26412156,-0.5295835,-0.14837505,0.57051873,0.3442297,0.29379976,0.14159971,-0.16336964,0.19082119,0.30083564,-0.54600006,-0.29840773,-0.36272597,-0.47684765,-0.071444504,0.15007874,-0.5799689,0.45551875,0.0023269209,0.26944607,0.08745992,-0.05361154,-0.5905414,-0.289407,0.6861541,-0.324696,-0.14703305,0.07838196,-0.094429284,0.10556971,-0.3187725,0.42909583,-0.017796941,-0.5013872,-0.62623215,-0.1483449,-0.5046927,-0.06631743,-0.17591271,0.35743505,-0.6572095,-0.27182987,0.01382737,-0.0937157,0.817255,-0.13307463,0.41680396,-0.31546924,0.23877276,-0.36593828,-0.30384305,-0.22740015,-0.5701845,0.0117688095,0.22403806,-0.18363896,0.4122132,0.11406009,0.029695315,-0.15565206,-0.4783847,0.55052674,0.52374375,-0.4465867,0.31638688,-0.59507376,-0.1697329,0.22073151,-0.7599626,-0.76435965,-0.3840742,0.40236947,0.21686424,0.5026392,-0.40615624,-0.012113729,0.010262575,0.013471824,-0.0066328747,0.11683113,-0.14276463,0.09454319,0.04266217,0.43630937,-0.42633545
K3U5akF5YThMbjlRMmhQSmwxYWgwdz09,0.5306148,-0.45985633,-0.23548889,-0.35766545,0.297724,-0.34733263,-0.1912856,0.25548777,0.2721428,0.17233261,0.11821838,-0.5255849,0.4117582,0.5161792,-0.017066753,0.0235919,-0.81976014,-0.4642219,0.44792905,0.04222997,0.31877804,0.18128464,-0.11920887,-0.3426967,0.28364787,0.17729309,-0.67628247,-0.12994231,-0.28833172,0.39503053,0.3082491,-0.7325199,0.37706774,-0.04992015,0.06369349,-0.15184201,-0.28714117,-0.67684734,0.20632303,0.64738065,-0.6391298,-0.53222007,-0.29601166,-0.31555098,-0.40123764,0.18264548,-0.1926137,0.15342577,-0.085876994,-0.77597797,0.06513082,-0.90066487,-0.23954761,-0.34273338,0.22542426,-0.7482128,0.29332185,0.050959237,-0.06775587,0.8384448,-0.546524,0.5959142,-0.32992932,0.2556207,0.114592575,-0.32666412,0.17655505,-0.50894624,0.38077664,0.20816024,-0.17445324,0.51403064,0.29155564,0.15995453,-0.35168013,-0.5003056,0.6664983,0.11650272,-0.7307943,0.5043654,-0.44769508,-0.7642778,-0.07162827,-0.86230135,-0.63678753,-0.090814896,0.6908694,-0.338933,0.34189302,-0.14737216,-0.026676321,-0.057691637,0.14296138,-0.08784461,0.36930802,-0.4345808,0.24597226,0.22594284,0.418857,-0.09108943
K3Y3Tk04ZjNqZHYxMHdzcEN5eWU2dz09,0.37188074,-0.24053878,-0.3074323,-0.09523263,-0.12961924,0.0786211,-0.616936,0.22044957,0.6112882,-0.4192292,0.011910459,-0.35847464,0.119495444,0.2702362,-0.4331806,0.21624874,-0.5317896,-0.14134859,0.43691933,0.0032059986,0.6537297,0.3924137,-0.6547664,0.40417412,0.29354388,0.061964836,-0.66791064,0.2721817,-0.5464426,0.063002065,0.32943663,-0.45240676,0.4466645,0.13090071,-0.03778999,-0.52178526,-0.025399318,0.33290496,-0.3836639,1.0182192,-0.9680537,0.28269282,0.45916298,-0.2610779,-0.7983223,0.32537264,-0.21877518,0.5628059,-0.3454214,-0.28395998,0.0007042929,-0.85106903,-0.5204921,0.10227849,-0.14136823,-0.91294485,0.20435362,-0.14198008,0.04425969,0.4474809,-0.41209707,0.9888519,0.07515847,0.35200253,-0.42345923,-0.59793454,0.27686605,-0.6022223,0.04618972,0.37487525,0.4816197,0.7833125,0.26613462,-0.2584328,-0.11479401,-0.3030689,0.24708888,-0.34386873,-0.44572604,0.6028343,-0.21843785,-0.4052827,0.093631215,-0.04702417,-0.336802,0.1953805,0.6268115,0.13287286,0.6381581,0.16647777,-0.5414455,0.2949563,0.46746334,0.10257604,0.12255219,-0.6268376,0.11532199,0.471095,0.66209954,-0.47359228
K3ZXU2JOUUtJdjh4UW9aV0lTaVJpdz09,0.5870927,-0.15939996,-0.34481788,0.008978006,-0.051519666,0.0948292,-0.4004598,0.14296311,0.6823711,-0.34516162,-0.0894097,-0.45725644,0.18026713,0.31998426,-0.43407604,0.32862917,-0.4601209,-0.21723427,0.2981677,-0.009494469,0.39227566,0.08046143,-0.38770124,0.14283624,0.30191392,-0.24619249,-0.5001699,-0.04333303,-0.5756816,0.040568355,0.3369425,-0.592406,0.58944505,-0.08458239,0.0029351008,-0.5463281,-0.17313085,0.0067266757,-0.25555858,0.91266793,-0.67483866,0.20912,0.2922921,-0.31227806,-0.59689647,0.10568839,-0.13589534,0.39098823,-0.19271556,-0.36597905,-0.020699315,-0.68709654,-0.31209105,0.06974434,-0.052286986,-0.87538344,0.16474406,-0.14617532,0.23582312,0.49783888,-0.48795497,0.6320425,-0.059394613,0.21001057,-0.3437317,-0.48260978,0.20909125,-0.52543736,0.27149147,0.22763364,0.36818928,0.64580774,0.24976167,-0.09883486,-0.22118352,-0.29873756,0.38305643,-0.05917411,-0.6563817,0.561777,-0.185688,-0.30610463,0.17704852,-0.2064977,-0.31022114,0.026679216,0.55941826,0.0718462,0.5226721,0.058547385,-0.3227306,0.20730582,0.41591695,-0.007068975,0.12152085,-0.5733516,0.2747137,0.32864887,0.53723407,-0.49155554
K3cwNS9mcmxiRFZEZVZ4ZHNPVGh0QT09,0.5224915,-0.19358644,-0.01577422,-0.7242921,0.02327206,0.016454337,-0.08243909,0.037414376,0.34620064,-0.2494645,-0.13614962,-0.4936544,0.32284158,0.179502,-0.20835091,-0.068792485,-0.68416053,-0.17829825,0.070643306,-0.026897747,0.039908983,0.025850723,-0.16056482,-0.27774036,0.35492104,0.110999785,-0.52842504,0.16637391,-0.10214482,0.073677324,0.3910243,-0.41750503,0.24583274,-0.13789022,0.14368519,-0.33504662,-0.055469275,-0.013647373,0.0026938014,0.70681894,-0.5936367,0.04592158,-0.054984156,-0.34554178,-0.32425985,-0.07339248,-0.17878217,0.20489003,0.01897267,-0.42385685,-0.20848855,-0.39696148,-0.31992117,0.05451386,-0.17549841,-0.6603264,0.20727226,-0.0034210996,0.060265288,0.096972495,-0.22170374,0.80448145,-0.14866962,0.3995513,-0.17624187,-0.39695412,0.24364834,-0.48873007,0.6345938,0.059350193,-0.13885567,0.68608165,0.42752367,0.10354938,-0.55850834,-0.46971223,0.6190524,-0.012543175,-0.7219192,0.61424994,-0.31849068,-0.78196174,0.16703053,-0.41232455,-0.2227677,0.27586544,0.586265,-0.36591032,0.027231866,-0.35530964,-0.110539354,0.19352765,0.11082131,0.2305636,0.19775201,-0.41405913,0.08542626,0.15582809,0.36262098,-0.38757968
K3dBZWVPUUdMNEhoejBzbE1tRUJsUT09,0.2735582,-0.30834472,-0.145866,-0.14273275,0.21003161,-0.03594285,-0.044128794,0.26300994,0.2715833,0.029280454,-0.14715768,-0.4255128,0.24198285,0.28786004,-0.07797179,0.11916258,-0.5984963,-0.32026842,0.36821643,0.0632129,0.44328067,0.46652517,-0.03008823,-0.06830791,0.107599065,0.026143445,-0.41833848,0.34560788,-0.18458839,0.24713586,-0.031864997,-0.3547676,0.3788514,-0.07596455,0.31211093,-0.32622442,-0.15266177,-0.18107237,0.0534878,0.63051724,-0.2701237,-0.31704834,-0.07561013,-0.13575156,-0.3694677,0.2420197,-0.10656614,-0.08617309,-0.12993856,-0.30611026,0.122121125,-0.43171227,-0.13502131,-0.3570418,-0.26959655,-0.6061548,0.15584877,-0.07690497,0.112477444,0.71261716,-0.30702743,0.5708306,0.053758368,0.17262729,-0.039509665,-0.26970452,0.119040534,-0.5166759,0.26241982,0.41337803,-0.0916421,0.4256327,0.02054016,0.14279307,-0.28398803,-0.095297836,0.36416054,-0.10946198,-0.2531876,0.47461766,-0.32484424,-0.3097938,-0.072556585,-0.5317916,-0.29509285,-0.0706729,0.54669374,-0.17636274,0.08099019,-0.124312945,-0.13282757,0.13785987,0.0495281,0.006166695,0.23363298,-0.43340054,0.16636015,0.20612933,0.48153076,0.03602403
K3gxVThpakRzanZZZlZIMkl2eDBKZz09,1.0374175,-0.6603747,-0.23995864,-0.975906,-0.5787306,0.061098717,-0.18694074,-0.40194517,0.8088027,-0.33878693,-0.43422562,-1.0245403,0.31381035,-0.5360934,-1.2131901,0.34234345,0.07710954,0.15789512,-0.5345717,0.006302178,0.9432755,0.58458865,-1.1782587,-0.12977861,0.11858964,0.13749507,-0.42606094,0.45739537,-0.3694445,1.1337442,0.34257096,-0.30943358,0.6702477,-0.5982514,-0.24150747,-0.74373835,-0.13542151,0.11982217,0.32383743,1.4507219,-0.45653498,0.01430127,-0.5808399,-0.110873014,0.14507915,0.036121413,0.51638377,0.3975785,-0.44954622,-0.7142619,-0.37655103,0.6174551,-1.1199062,0.13182555,-0.11937784,-0.9517938,0.7869188,0.5004587,0.15444261,0.4859174,-0.9748322,0.24412149,0.059986383,0.4904636,-1.1275222,-0.69915664,0.4084109,-0.13234292,1.0697074,1.0053554,-0.28468955,1.017705,0.31805828,-0.09467845,-1.0807425,-0.0947155,-0.008613706,0.14149535,-0.0829452,0.8306628,-0.91049546,-0.81415194,-0.22473723,-0.23036912,0.30342776,-0.11873515,1.2183416,-0.4545715,0.26314655,-0.820564,-0.9910956,-0.09711687,0.00622043,0.5965189,-0.78671014,-0.28225812,0.33249974,0.73494095,0.71002996,0.1849894
K3hRcnBLR2lVTXJKQythbW4rU0NGUT09,0.5954591,-0.2819475,-0.04246511,-0.11178908,-0.19513448,0.043388326,0.19307232,-0.098794855,0.4073969,-0.2652388,-0.12241364,-0.3988178,0.03941468,0.19518952,-0.20230806,0.0006951509,0.15410097,-0.2577099,0.040167436,0.009317012,0.106723815,0.363954,-0.030150827,-0.01752195,0.11518709,-0.08510053,0.0779902,0.08075051,-0.36209416,0.26241702,0.004199252,0.18351327,0.18597485,-0.072463945,-0.001521298,-0.47661948,0.09739079,0.07500852,-0.09853733,-0.09170282,0.20762281,-0.34981412,-0.49773106,0.025479943,-0.16879037,-0.090878904,-0.034232065,0.20853062,-0.22215544,-0.57815075,0.044080798,-0.20760596,0.16922925,-0.64534414,0.12536585,-0.32658327,-0.336784,0.36827964,0.5070243,0.05952839,0.03825388,-0.34045458,0.44849896,-0.16556819,-0.15430324,-0.02459304,-0.34272435,-0.46591482,0.14551967,0.3645554,0.12330206,0.49525705,0.17419778,0.15077603,-0.22145642,-0.295642,0.6591016,0.19709148,0.04520376,-0.3089434,-0.67829674,-0.1362393,0.068866275,-0.7663248,-0.18567234,-0.25535777,0.38921732,-0.23131928,0.09756301,-0.00023791299,-0.02823726,0.2735186,-0.1811348,0.017203862,-0.11969333,-0.1654227,0.16243604,0.11168884,0.79723865,0.21749046
K3lOallrb1JGUXNjcUhxRkFRT3VTQT09,0.8339121,-0.25807297,0.19061899,-0.37419093,-0.30378893,0.062981494,-0.44422343,0.099759124,0.79984534,-0.697401,0.42152753,-0.79855627,0.10218117,0.5461241,-0.284141,-0.020043245,-0.51286256,0.039402105,0.18765934,0.39232427,0.45180303,-0.0048450436,-0.6386049,-0.27759928,0.32842785,0.45033014,-0.35299885,0.038564775,-0.3006832,-0.08657896,0.9363384,-0.3000032,0.17158009,0.177874,0.1164894,-0.18420959,-0.07074409,0.17980804,-0.3277323,1.1120249,-0.3876276,0.3172681,0.25405237,-0.3163161,-0.15165563,-0.0780995,0.2811159,0.1434952,-0.010182949,-0.633961,-0.16099499,-0.8742529,-0.54255176,-0.31192756,0.30934265,-1.1322436,0.24042566,0.19320017,0.0035516846,0.36085287,-0.39955965,0.94375944,-0.29023775,0.5160665,-0.27292854,-0.58242404,-0.0008697392,-0.34907898,0.51812774,0.45666552,0.14199227,0.8588436,0.35713455,-0.3828374,-0.24509384,-0.4774581,0.5288329,0.16345987,-0.29644597,0.59038967,-0.6393671,-0.84014314,0.12339047,-0.66171247,-0.6124267,-0.087197945,0.85906893,-0.24041077,0.52867556,-0.16628638,-0.31675902,0.33785722,0.25839052,0.17037413,-0.12186722,-0.42878407,0.23412165,0.19921385,0.7668292,-0.3924736
K3lWMnV2RjlBTjg5Q2VGbXkwQ3pQUT09,0.7717304,-0.844288,1.1197231,-0.01698117,-0.3836231,-0.13431889,0.64761347,-0.47683692,0.376201,-0.34253508,-0.57252884,-0.5913516,1.1766921,0.41695908,0.2964383,-0.15700507,-1.9999012,-0.40398994,0.36396638,-0.1690455,-0.45276242,0.1861591,-0.34068048,-0.40009472,0.6550706,0.037689257,-0.45660263,0.7605398,0.6155515,-0.012449725,0.17197897,-1.0377399,1.0617441,-0.50757915,1.169726,-0.44463807,0.462685,-0.8358858,-0.5110871,1.4449686,-0.26073816,-0.71941984,-0.1095819,-1.0263041,-0.59176934,-0.9770529,0.062999174,-0.3176397,0.34603217,-0.17144984,0.110061884,-0.5815408,0.4443768,-0.63250095,-0.018958269,-0.80844086,0.0330915,-0.22640538,0.2333812,0.8925868,0.774547,1.542053,-0.7631201,0.5610285,0.38603055,-1.1077794,0.19992164,-0.6142652,0.67409194,0.16622761,-0.44611776,0.07381515,-0.48198536,0.1699749,-0.9711134,-0.81624687,1.848813,0.5116047,-0.22719634,0.59070617,-1.036969,-0.021047369,0.055237282,-1.8797927,-0.13247013,0.055907506,1.2025653,-1.2327499,-0.9855299,-1.2745534,-0.44880408,0.20198976,0.2755798,1.4513097,-0.11975999,-0.11399578,0.4090182,0.052468278,-0.027232816,-0.21933916
Ky8wZ2R5dmtKcVhjaTNOMGl4Y1ZkZz09,0.4546118,-0.50524056,0.10311495,-0.17878127,0.319512,-0.19998614,-0.07336962,-0.023183884,0.3660594,-0.051444273,-0.12893763,-0.48601943,0.27693272,0.26327696,-0.070436746,-0.12659566,-0.369966,-0.33998525,-0.006626986,-0.032884527,0.17768916,0.34129247,-0.15972571,-0.09929928,0.25270787,0.11951807,-0.035312153,0.2123028,-0.11228556,0.43102127,0.18242328,-0.14994955,0.3697153,-0.19833717,0.12043564,-0.10989482,0.033183824,-0.2540501,0.05347319,0.23221669,-0.32178804,-0.54773206,-0.5102284,0.06330152,-0.34700996,0.16574988,-0.052766383,0.080682404,0.085231155,-0.4590051,0.037838407,-0.42413235,-0.060999084,-0.20368536,0.05714217,-0.56331766,0.15228404,-0.15003057,-0.0028879594,0.4311615,-0.45888108,0.040744793,0.05166095,-0.2699692,-0.26457366,-0.21786323,-0.08622491,-0.28147593,0.4522626,0.41365126,-0.04236172,0.467113,0.019442093,0.1134489,-0.043163247,0.083730124,0.6190838,0.1520115,-0.25745878,0.20053305,-0.42419404,-0.52771956,-0.061400484,-0.42951345,-0.16331957,-0.25011072,0.3128231,-0.35767823,0.14880918,-0.089069754,-0.1670496,-0.06504552,0.20997767,0.185988,0.06265354,-0.2946562,0.110475115,0.1693261,0.37861282,-0.031755865
Ky9LSzZKaXN5bVRQYWJxSGVDbWVpdz09,0.48395112,-1.0415096,-0.10676144,-0.8563608,0.10429606,-0.53853565,0.682456,-0.06737024,0.8006058,-0.3681822,-0.09701414,-0.8324838,0.9835415,0.08666143,0.021080207,0.4542845,-1.0827276,-0.2959674,0.28611708,-0.15942267,0.6028869,0.3499491,-0.35829496,-1.059671,0.71648335,-0.13237311,-0.0011433171,-0.21808174,-0.16233209,0.024881605,0.20723099,-1.6381085,1.2003825,-0.011339358,1.0507401,-0.3065645,-0.38354203,-0.8218337,0.36346495,1.0933812,-0.41027257,-0.4906735,-0.14802432,-0.7925489,0.11031699,-0.27011907,0.5252628,0.046554215,0.42814717,-0.74854755,-0.6798476,-0.8029499,-0.4499008,0.044054024,0.23993608,-0.985674,0.8223346,-0.21805947,0.69852215,1.1287208,-0.08228271,1.139107,-0.84534305,0.9609756,0.20723993,-0.22453028,0.9205271,-0.603638,0.5650988,1.1467122,-1.3023937,-0.22933784,-0.2545835,0.7423507,-0.59737325,-0.5864263,1.2156639,0.2799214,-1.278707,0.40328902,-0.2402276,-1.6156653,0.10159302,-0.9594962,-0.30327803,0.07466619,0.86885715,-0.95790535,-0.041807037,-0.7751219,0.32860586,-0.1480558,0.29350722,0.26001337,-0.12848935,-0.44130406,0.07057649,-0.18289481,0.33289665,-0.027529316
KysyemJVa3ExNW5MYWl3WnkvRjRLQT09,1.0289212,-0.6037161,-0.64273655,-0.52054703,0.31594244,-0.17395978,0.038334277,0.20038188,1.2170253,0.0019160113,0.3511515,-0.5556369,0.6005551,0.30055216,-0.13769452,0.52665395,-0.8633819,-0.27421227,0.08688837,-0.20063989,0.7373412,0.18110853,-0.42317903,-0.52583206,0.33300242,-0.56744426,-0.2352788,0.11154445,-0.61700904,0.35731986,0.6725345,-1.3296382,0.701592,-0.09985029,0.07545488,0.049743492,-0.6294634,-0.9921399,-0.0063886805,1.3197864,-0.85288304,0.04068247,-0.23136382,-0.64229983,-0.07597731,-0.21231075,-0.103622355,-0.17354399,0.42622566,-0.66697353,-0.10794703,-1.0101944,-0.3524666,-0.04942663,0.08022633,-1.0097765,0.57109416,0.113883264,-0.054211464,1.4376154,-0.860476,0.7436979,-0.726269,0.45138326,-0.07290702,-0.34377483,0.30991003,-0.57474226,0.6964914,0.7531592,0.08280566,0.70445275,0.13483272,0.26263723,-0.40800047,-0.41937962,1.0448693,-0.032476086,-0.84537524,0.6993981,-0.4781879,-1.3558608,0.28904605,-0.33266142,-0.7874697,0.2694632,0.88029534,-0.37138477,0.9696097,-0.124516845,0.5298093,0.34633234,0.8384929,0.21536916,0.0075754267,-0.7053911,0.10838304,-0.112317584,0.48295155,-0.23960535
KzBmU0xOYXpzRTloN2tjYmM2UUxIQT09,2.28925,-1.2348114,-0.5827836,0.0063615832,-0.75957364,1.2072747,-0.14934044,0.162093,1.0579655,-0.32727885,-0.63094544,-0.39070287,0.7379678,0.4453508,-0.3666223,0.13186893,-1.2334757,-0.13163194,-0.988741,-0.85701114,-0.44551817,-0.019129345,0.7140606,0.13519177,-0.08835271,-0.33948457,-0.36776033,0.31766146,-0.64662695,-0.6888686,0.4060017,-0.1267863,-0.168245,0.6611459,-0.053022433,-0.35521683,-1.3061508,0.078323126,0.22159259,1.3872379,-0.088564806,-0.10516278,-0.03528013,-0.28170735,-1.0086998,0.60366905,-0.87279445,-0.33185887,1.0157619,-0.92101383,-0.0023993019,-1.4236531,0.6453069,-1.084153,-1.0427748,-1.1733899,-0.5494916,0.78959614,0.15857369,0.5905663,0.73286694,-0.044092346,-0.30778873,-0.026113337,-0.15646271,-0.5699821,0.6884079,-0.6068632,-0.5302113,0.27095202,0.23607214,-0.301335,0.5670323,-0.21626502,-0.3775957,-1.1873317,1.1690544,-0.17629607,-0.20744745,0.33181825,0.917984,-1.2948617,0.07749931,-0.0051690144,-0.5612558,0.4340724,0.43371424,-0.4437274,0.8075543,-0.13074206,0.21818073,0.46840525,1.1336461,0.59660983,0.10607633,-1.1125641,0.6999059,0.45347157,1.0447259,0.39271554
KzFUSk1WMCs5ZElFTm5YcG4rSmptdz09,0.7081661,-1.3329594,-0.6879356,-1.2595098,0.14169016,-0.22184287,-0.2154837,-0.3784975,1.1285789,-0.20338552,-0.6298875,-1.3032403,0.3772623,-0.220422,-0.71364355,1.0069625,-0.7089415,-0.07538365,-0.24782917,-0.44476283,1.1878053,1.7973478,-0.3591076,-0.8450976,0.4238062,0.21651436,-0.58152544,0.29388332,-0.4801021,0.9366361,0.039673388,-0.18582767,0.93461585,-0.27535987,0.115193844,-0.12421836,-0.12380252,0.40102112,0.2697683,1.9894896,-0.551067,0.14777824,-0.36693746,0.39509553,0.008650785,0.39480335,0.090660095,-0.16196097,0.22752286,-1.0298152,-0.34761873,0.06584218,-1.0875138,0.41458,-0.63524413,-1.4587893,0.9614904,-0.19289829,-0.030324768,0.83155507,-1.0918256,0.6993817,0.2755776,0.43507755,-1.2463655,-0.37264115,0.8849607,-0.061458483,1.0571194,0.89578843,-0.94659805,1.0364118,0.4688887,0.3535363,-0.15016663,0.20204937,0.1682435,-0.29288548,-0.056132827,1.2837955,-0.7233851,-1.860368,0.17538911,-0.47564775,0.3581535,-0.32584715,1.1532432,-0.3170633,0.22499126,-1.4264934,-1.1535853,-0.38061237,0.67419845,0.21810564,-0.5745843,-0.9653612,0.8828714,0.32572407,0.5311966,0.6074995
KzJpbkhENkF4L2g4S3RTWDhUTk82Zz09,0.7759334,-0.8628586,-0.08011639,-0.9058786,-0.18504678,-0.35853407,0.9822152,-0.21913628,1.4367535,0.04237631,-0.9354255,-1.2308687,1.0024965,-0.13012165,-0.74968904,0.94952804,-0.083377354,-1.6404037,-0.06368259,-0.28636163,1.2018127,1.1406394,-0.806091,-0.75581163,0.7901784,-1.109641,-0.5972407,-0.315125,-1.2987583,1.566611,-0.9823272,-0.92016226,1.3512954,-1.0500455,1.2682542,-2.1032755,-0.76032925,-0.7266794,0.37892678,0.28049234,0.055927556,-1.2123876,-1.5399985,0.2532746,-1.1387713,0.39981174,0.18177289,0.9923038,-0.14890572,-1.6990707,-0.42921433,0.61508685,0.40762302,-0.43242612,-0.32043102,-1.7712564,0.7329027,0.76964635,2.083476,0.95051235,-0.37016222,-0.82132965,-0.08593186,1.0612446,-0.0547423,-0.6331238,0.65938413,-0.32166502,1.4338021,1.5089363,-1.0505613,-0.036060672,0.7072077,0.98074806,-1.5022322,-0.5442078,0.8307727,0.8316252,-0.84625566,0.31982648,-0.8375253,-0.68152374,-0.2572251,-0.83329487,0.49942717,-0.90581965,1.2413027,-1.7235059,0.73732007,-1.6249068,0.39557168,-0.0040853103,-0.312179,-1.0239712,0.68039674,-1.3579398,0.69541055,0.90268785,1.793159,0.5517478
KzJwVUNQbDhsQUtHZFFQa3E0amxKdz09,0.3830152,-0.33633733,-0.10713678,-0.14285241,-0.012079941,-0.04587565,-0.023467746,0.07853989,0.34097257,-0.22935344,0.048202682,-0.16102713,0.20143846,-0.007820515,-0.14295802,-0.0749656,-0.33370447,-0.2143165,-0.102995984,-0.11634629,0.23015061,0.21166006,-0.2930235,0.027052391,0.02601718,0.024325673,-0.151506,0.16853115,-0.14323276,0.19284247,0.029096916,-0.41032708,0.24846727,-0.18267372,0.06550278,-0.27755037,-0.13403118,-0.14491794,-0.055646293,0.50577325,-0.26831332,-0.17031255,-0.27410668,-0.09335408,-0.11214607,-0.03915587,-0.038844388,-0.021223987,0.026291432,-0.46114215,-0.08280277,-0.22431552,-0.11506632,-0.06657976,0.0097490065,-0.4746261,0.19032726,0.13865978,0.10268823,0.39089984,-0.19195198,0.34094632,-0.121197894,0.0054109134,-0.2433176,-0.34783298,0.19449814,-0.26885155,0.27508867,0.22832525,-0.030601574,0.31369185,0.24938822,0.09057102,-0.24008009,-0.3431853,0.26544943,0.0671649,-0.21680494,0.34063482,-0.11976445,-0.45941117,0.10413396,-0.3006191,-0.07345416,0.10782907,0.52285165,-0.27998996,0.21261504,-0.22923605,-0.21360013,0.07190606,0.11659405,0.14114381,0.011918165,-0.39904854,0.16252287,0.2480839,0.45291728,-0.0027343356
KzNRNTJiUlZIaElkR0R6YXhSL2F6Zz09,0.56853306,-0.28553176,-0.08023211,-0.87089014,-0.12482785,0.19426732,-0.009308942,-0.107225426,0.37107038,-0.13538446,-0.27807787,-0.5815556,0.2915365,-0.18692186,-0.46218184,-0.07106784,-0.37750953,-0.10588442,-0.38488135,-0.22151542,0.25036514,0.044850122,-0.5985554,-0.28353685,0.27216804,-0.033292852,-0.446191,0.17697412,-0.024866909,0.37936726,0.21326506,-0.32181287,-0.047514215,-0.44302922,0.07076232,-0.45189136,-0.06387626,0.038411293,0.16525118,0.78858536,-0.47519052,-0.010525662,-0.2729045,-0.18855791,-0.2021361,-0.03803625,0.015784055,0.21709123,-0.10411604,-0.3475073,-0.45863283,0.21419957,-0.34416038,0.07514095,-0.25983778,-0.71654713,0.46203372,0.18509676,0.14659874,0.089564584,-0.2678584,0.50923365,-0.17403458,0.31022325,-0.3751545,-0.34769738,0.31292692,-0.30193156,0.8806512,0.25028318,-0.26532727,0.63416386,0.47584152,-0.03615479,-0.9454803,-0.30859417,0.30722108,0.24100013,-0.35567382,0.6701301,-0.3815202,-0.8152482,0.1432251,-0.11086692,0.07685213,0.22816877,0.671806,-0.4416805,0.08502643,-0.4890728,-0.13421334,0.0024154559,-0.023807606,0.4405644,-0.093285576,-0.33806938,0.044124793,0.2604832,0.3124565,-0.17210822
KzNTd0liVDFoVjNVQVBvNDdBOFNkQT09,0.6957855,-0.574302,0.21559565,-0.2668476,-0.22544377,-0.08717428,-0.12144047,-0.33297572,0.6199395,-0.43053335,0.0073080063,-0.6212997,0.81373143,0.20364915,-0.40382817,-0.3080685,0.02074743,-0.20201015,0.046523716,0.18184271,0.18272795,-0.10267796,-0.4829272,-0.15502666,0.14439693,0.3181355,-0.020803543,-0.0014055704,-0.29134917,0.20543346,0.40378138,-0.7804249,0.46043703,-0.22405986,-0.13925716,-0.78014374,-0.8113063,-0.33950955,0.5231291,0.56731904,-0.09884911,-0.381912,-0.44361907,-0.36979848,-0.056434013,0.27960995,0.015662495,0.43061665,0.30089667,-0.39759648,-0.025745757,-0.30551735,-0.5337147,-4.393213e-05,0.15488195,-0.63179123,0.42106676,0.21149966,0.47085604,0.21449444,-0.4613848,-0.0010332614,-0.29976496,0.24916284,-0.1909239,-0.31582862,0.32669,-0.16880989,0.29572493,0.60181284,-0.17399693,0.16071495,0.17909133,0.18892872,-0.82567394,-0.41484952,0.5851671,-0.121482894,-0.7891568,-0.21175121,0.034798518,-0.7081726,-0.15953149,-0.5649881,-0.1613197,0.37207606,0.6070706,-0.78919107,0.24973695,0.26201212,-0.08786462,0.609672,0.034403477,-0.21573532,-0.07621934,-0.042231172,0.35688394,0.29203543,0.5430369,0.2774109
KzZ4QjBrLytJN1FucVE2VkdTd1ExQT09,3.1152663,-0.3781918,-1.392079,0.7505795,0.18172094,0.5163021,-0.7976923,-0.7106212,2.2613003,-1.7354997,-0.9269483,-2.1171625,-0.2916401,-0.46961835,-1.8339266,0.4037814,-0.0726812,-1.0625925,-0.17062156,-0.303154,1.6631706,0.9495426,0.42739668,0.22374593,0.12228536,-0.005301191,0.0820753,0.7694278,-1.9617292,0.15232094,-0.31184688,-0.022671781,1.1101764,-1.1263084,-0.54920423,-1.2368791,0.030361407,1.0668564,-1.4377023,1.7729077,0.11876832,-0.14063083,-0.85510623,-0.35131392,-0.73094934,0.63750064,-0.90616745,1.5310849,0.22837299,-1.9896683,0.61799115,0.051566105,-0.70140886,-1.5181721,0.17074867,-1.6299033,-0.54936385,0.64953506,0.6597765,-0.47882286,-0.19980238,0.747445,0.20948163,-0.24859333,-2.2355747,0.45893252,-0.5989318,-0.5595867,-0.15398465,1.4802989,0.42528734,2.0680196,0.7018101,-0.21741101,-0.011846883,-0.10600564,1.7551547,-1.3446659,-0.6327287,-0.32734033,-1.072797,-0.6381337,0.0078051295,0.26298684,-0.99077463,-0.0675533,1.1934468,-0.13338032,1.140723,-0.3532638,0.63040143,1.2714596,1.0669817,0.17935996,-0.41251314,-1.2126797,-0.68830144,-0.25245726,1.9530065,-0.9119805
KzZ6RGdDamZvclpMam5UT0F3c3NKdz09,0.42360213,-0.39807928,-0.27477568,-0.57131565,0.08920945,-0.030570608,-0.018316269,0.06390001,0.33663064,-0.28236637,0.13541819,-0.44896588,0.5267918,0.60900617,0.023068096,-0.22808933,-0.9815128,-0.20006368,0.21814483,-0.10429651,-0.05391148,0.22247475,-0.283603,-0.027289128,0.3357978,0.17527428,-0.6942611,-0.20065913,-0.18703404,-0.31111246,0.38325664,-0.34071663,-0.061594322,-0.124437965,0.12020935,-0.16633204,-0.08074827,-0.4515854,0.00488846,0.74102217,-0.62442356,-0.24942763,-0.11930811,-0.1265442,-0.402088,0.00859566,-0.03830926,0.14191848,0.22817752,-0.6399468,-0.1838548,-0.90718293,-0.20535749,-0.08358842,-0.085416645,-0.8181747,0.23504987,0.1931799,0.13361211,0.45074022,-0.36782518,0.765048,-0.22996634,0.08956186,0.005894767,-0.40470588,0.08697843,-0.468444,0.42629102,-0.24659422,-0.13063326,0.60944957,0.6722524,0.30958113,-0.4905624,-0.64121455,0.73028153,0.30970973,-0.6202711,0.33863294,-0.27280182,-0.86366695,0.1518034,-0.8183877,-0.5216684,0.26221812,0.9009575,-0.41223124,0.18763214,-0.21338633,-0.3037108,0.11906629,0.5094387,0.022144457,0.23322761,-0.623493,0.30636248,0.4946393,0.508894,-0.33060473
KzZSV1lDOTg0NkhyRm9Rc3poQWFuUT09,0.2602158,-0.28483185,-0.22761202,-0.5952088,-0.17193992,-0.1374096,-0.34720203,0.40735865,0.4601952,-0.3741865,0.2606991,-0.21229048,-0.005917502,0.5324083,-0.3424674,-0.33523515,-0.4264672,0.03489132,0.31065395,-0.24692026,0.21515504,-0.1865785,-0.37746337,-0.040739097,0.06053975,0.27620134,-0.60995716,-0.021049764,-0.03203035,0.081175804,0.35956377,-0.25001153,0.07803406,0.003942898,-0.043876197,-0.29930824,-0.06654591,-0.25708604,-0.18001437,0.47736263,-0.42371392,-0.39879307,0.054215837,0.16130531,-0.24327831,-0.03858297,-0.09524435,0.2648571,-0.25318238,-0.254392,-0.30129418,-0.7928871,0.0532197,-0.22328854,-0.28953844,-0.33511797,0.16078292,0.5270376,-0.053873274,0.5760266,-0.36483264,0.46730047,0.116084956,-0.21643417,-0.09144624,-0.63204,-0.16236605,-0.4467473,0.4201782,0.3273855,0.11395187,0.41436413,0.44180158,0.08087353,-0.62011904,-0.6416206,0.36601478,0.17396705,-0.08506811,0.28542826,-0.11401606,-0.2813788,0.01757015,-0.16621502,-0.46915817,0.025420276,0.9530225,-0.12809846,0.24872218,-0.12113691,-0.12956098,-0.23712158,0.105915144,-0.12739393,0.26735172,-0.34596044,-0.15547836,0.5396329,0.5382849,-0.3454569
KzlYTnQ0UFBhRmpPUzBQQ1JWNTFBdz09,0.7950829,-0.30911577,-0.33335647,-0.4277268,-0.37674427,-0.057048492,-0.59919435,0.06777933,1.1024845,-0.43701372,0.020813163,-0.90664554,0.18249573,0.17247404,-0.66177005,0.5421136,-0.7865538,0.055314723,0.3586074,0.21400057,0.63690555,0.5304746,-0.5179856,-0.14893243,0.45962256,0.034702394,-1.0825416,0.04808186,-0.801885,0.30727327,0.38379428,-0.5748515,0.9530383,0.082465366,-0.07469181,-0.081117004,-0.040184878,0.057875562,-0.4180435,1.5321215,-0.72258776,0.110210165,0.34307,-0.10408879,-0.62395275,0.0147648575,0.1844396,0.2764486,-0.47850582,-0.6451572,-0.3817292,-0.73251146,-0.9804977,0.09550468,-0.25447607,-1.1253233,0.29921746,0.17318738,-0.039554603,0.4924212,-0.7018649,1.1096004,-0.104359746,0.602579,-0.5988257,-0.82074577,0.45467103,-0.6106515,0.28611475,0.63442403,-0.17324927,0.9847125,0.2459725,0.19560726,-0.17940092,-0.059331123,0.27160224,-0.20769307,-0.3007399,1.0113527,-0.7075422,-0.7030908,0.24528873,-0.31637368,-0.6120374,-0.21065168,0.93110734,0.06419115,0.84195495,-0.88927037,-0.38112435,-0.12977207,0.34157607,0.12130702,-0.21033773,-0.59999037,0.5874504,0.34737962,0.70582736,-0.3191754
KzlyQ1JES1ZqZmxSZlZBeXZWRFhkdz09,0.6259137,-0.42638192,-0.11543123,-0.5423382,0.017894307,0.059079275,0.14994463,0.23461318,0.6624959,-0.13641083,-0.118137985,-0.64674705,0.13386877,0.2536627,-0.15534705,-0.026733628,-0.37339115,-0.114916235,0.11541197,0.0991724,0.35868433,0.35144424,-0.22934665,-0.2957345,0.36319885,0.09229962,-0.24994554,0.22837111,-0.11938185,0.2960695,0.35428163,-0.41402337,0.19837442,-0.17981425,0.21746296,-0.37218288,-0.18487096,-0.15083422,0.040252328,0.70482266,-0.3698884,-0.24076203,-0.31595778,-0.26747614,-0.25550315,-0.016030421,0.1003429,-0.0053773522,-0.0009302348,-0.60242724,-0.071088165,-0.44710276,-0.20203559,-0.39174107,-0.074068144,-0.8105939,0.33407244,0.18386,0.24559456,0.6623518,-0.56187266,0.45405117,0.060852513,0.39172763,-0.114393525,-0.3737975,0.11460735,-0.6036437,0.68242544,0.4307243,-0.29506913,0.6379994,0.22633055,0.15643969,-0.5797409,-0.3422144,0.64391744,0.23551767,-0.47278655,0.4916396,-0.65636367,-0.7039436,0.15443438,-0.71325576,-0.295488,-0.19185875,0.7555166,-0.5059798,0.16459051,-0.3137859,-0.053180534,0.23240209,-0.055451516,0.047828123,0.11526081,-0.45049912,0.23328145,0.13109647,0.75319725,-0.031034142
L01yZVlCdXJ6UHN5eFduWkVkRXFvUT09,0.45108846,-0.24543451,-0.53346336,-0.09431146,-0.27666098,0.15786502,-1.319596,0.40687215,1.1081731,-0.7264926,0.03881187,-0.50416815,0.0914048,0.43686578,-0.8047879,0.57948387,-0.98013026,-0.19532706,0.9257753,0.077024326,1.1843415,0.6631013,-1.2860024,0.78847015,0.5938369,0.0447823,-1.3564051,0.5007878,-1.0401515,-0.09173807,0.5156318,-0.7384691,0.83147776,0.52147305,-0.09535705,-0.93527204,0.107688434,0.7355369,-0.93517965,1.9144207,-1.8535632,0.7931,1.2093068,-0.5040974,-1.6415691,0.650466,-0.40111864,1.108753,-0.7882958,-0.25710034,-0.12942563,-1.5620341,-1.1333025,0.44219014,-0.32059997,-1.6850467,0.47620022,-0.48740098,0.04790322,0.6809196,-0.73448336,2.1168482,0.12645051,0.75022805,-0.81957555,-1.0542384,0.6186675,-1.040302,-0.023244055,0.7406419,0.9669865,1.484316,0.46993205,-0.60892093,-0.033351425,-0.33799985,0.13064644,-0.81361806,-0.6907224,1.1983806,-0.28038856,-0.6136409,0.23208736,0.25061798,-0.6805629,0.4077407,0.9423513,0.5152984,1.2198906,0.37467474,-1.0093192,0.460137,0.91414046,0.2725653,0.16186628,-1.1228944,0.21708204,0.82427716,0.9969072,-0.98610216
L0FmY3lHcUJGbm1QazB4a1lkS3Ardz09,1.2210677,-0.48746854,-0.5554302,-0.36787307,0.46138924,-0.035998244,-0.14072618,-0.055774733,1.3533106,0.3510731,0.06663558,-1.0606431,0.6918023,0.112358525,-0.4730732,0.75447583,-1.1633042,-0.4377638,0.062724456,-0.24100716,0.9057717,0.36291856,-0.32020158,-0.6739685,0.05790987,-0.3761034,-0.65031755,-0.23809761,-1.1306627,0.112316206,-0.011813033,-0.80022913,0.9438684,-0.5625119,-0.0256868,-0.058793727,-0.95852774,-0.6389719,0.2024231,1.297974,-0.69992125,0.08046892,-0.06569827,0.16790465,-0.7189181,0.15102689,-0.29122788,0.14662263,0.33821982,-0.80772126,-0.58796453,0.11213359,-0.67309994,0.26510662,-0.13108838,-1.1487666,0.6889449,0.113682404,0.12764092,0.30986544,-0.7929165,0.8666081,-1.2045873,-0.17667419,-0.30003858,0.26316875,0.59088224,0.043976493,1.0057338,0.5223705,0.04790379,0.7752765,0.4684308,0.12782668,-0.43256044,0.036459878,0.3214721,-0.20321919,-1.147221,0.72240245,-0.3296812,-1.3404171,0.4136764,0.13818148,-0.5694536,0.48304942,0.9030678,-0.29642126,0.8257566,-0.13565862,0.6554883,0.15726638,0.5018158,-0.18935314,-0.008116759,-1.0469848,0.26385263,0.0038487948,0.26591778,-0.28264722
L0Job2NBWm5pazBsUTVRUERrcGkwQT09,2.3321645,-1.5531293,-0.873901,-0.3038764,-0.5352364,0.88835377,-1.1875166,-1.1451586,0.9943834,-0.16928062,-0.28448316,-0.52939343,0.9732844,1.229567,-0.3596933,-0.0011384286,-0.42549935,0.70601964,0.16209218,0.065732785,0.36758795,0.663275,0.11337541,1.081796,1.0231616,0.06775191,-0.095946126,0.27451053,-1.0068516,-0.5719385,1.4050521,0.8051866,0.20295167,-0.5476991,-0.75136155,-0.09424163,-0.72543895,0.98695606,0.08961801,2.2798443,-1.3490131,-0.9771788,-0.5989152,0.24845374,-0.69143575,0.24652974,-0.8354065,-0.7358424,-0.7144594,-0.45648965,0.2865214,-1.50263,-0.10548767,-0.25073603,-0.025658304,-1.3140101,-0.8432066,-0.10154569,0.06857176,-0.4363157,-0.473526,0.11597684,0.9209659,-0.7741637,-1.5273076,-0.6650921,-0.95180976,-1.40002,0.4687017,-0.21750817,0.81733125,1.9887271,-0.4275093,0.2894367,-0.21408546,-0.56864315,1.6070362,0.964253,-0.3887296,0.30356288,-1.2255529,-0.18358344,1.0190542,-2.4277136,-0.76925564,0.59932417,0.9121269,0.4538231,0.65776455,0.39309382,-1.7061036,0.9478811,0.11289637,0.90761995,0.20313977,-0.7435803,0.4055101,0.5813253,1.8915789,0.08464123
L0Q4Z2tYY3AzSlkxZGl3dEY0bDV6QT09,0.48897716,-0.30212423,-0.6368744,-0.5536057,-0.099539906,-0.009936076,0.15388198,-0.07354169,0.70212567,-0.20176484,-0.22462682,-0.41599265,0.15375516,-0.1545483,-0.74566805,0.5274482,-0.5370414,-0.2116987,0.5283222,0.05412348,0.27853587,0.25512457,-0.2975788,0.18684632,0.8538728,-0.25225502,-0.8179376,-0.23230332,-0.6268857,0.11547161,-0.22238351,-0.6847034,0.86523396,-0.00800419,0.28189072,-0.08259193,-0.08890691,-0.08975833,-0.094542205,1.1948571,-0.38055632,-0.85990405,-0.5289181,0.20004742,-0.12963977,-0.35390323,0.3230381,0.3659008,-0.8332168,-1.1606771,-0.24727891,-0.6169215,-0.14521277,-0.19672999,0.15273419,-0.53679174,-0.24854924,0.36497778,-0.007719782,0.536285,-0.14110154,0.34434035,-0.1594029,0.42062452,-0.6200905,-0.5839114,0.03480074,-0.8169623,0.13781211,0.88112515,-0.97486496,0.51978976,0.08170182,0.6111043,0.14897867,-0.7246043,0.6925395,0.62609184,-0.3656079,0.12188214,-1.0518488,-0.062910095,0.8008383,-1.122444,-0.9252174,-0.7011496,0.27717125,-0.3558272,0.6723243,-0.85422254,0.16915613,-0.35273057,-0.49381724,-0.20289722,0.44816476,-0.373523,0.03942132,0.36511123,0.7853634,0.20157462
L0R1MGRsdVVoeDN0cjQ3WUhsM0ZZQT09,0.45539755,-0.3253279,-0.30564228,-0.25035757,0.3265051,-0.2054526,-0.097829826,0.30704644,0.48175326,0.047185402,-0.13085584,-0.3587617,0.06361167,0.34247524,-0.19503438,0.18810545,-0.20493679,-0.081686966,0.4169906,0.06489322,0.3080156,0.20245644,-0.12929611,-0.34333298,0.24692449,0.09588392,-0.18597755,0.27314693,-0.3050844,0.18743792,0.40733558,-0.35952333,0.41852722,0.056532145,-0.03159335,0.069350116,-0.13567632,-0.19962525,-0.006190148,0.5380678,-0.49920377,-0.30881515,-0.15750387,-0.08265285,-0.33235788,0.1938522,0.11482136,-0.023297584,-0.077354744,-0.3371725,0.0961397,-0.68412274,-0.04519125,-0.3536409,0.14464438,-0.5867116,0.2720105,-0.18307844,-0.015926367,0.6810931,-0.5924292,0.20143142,-0.07708533,0.23261194,-0.22216897,-0.20617211,0.080016375,-0.4566756,0.34569138,0.42221412,-0.24936524,0.3304063,-0.03226366,0.22751221,0.00056173204,-0.13351347,0.33973458,0.37036008,-0.5885935,0.23584278,-0.47596675,-0.36097687,0.008676462,-0.515222,-0.36190763,-0.38994244,0.1120016,-0.278431,0.14900023,-0.15757887,-0.07849789,-0.11823332,0.18416508,0.0021809856,0.4222056,-0.20645551,-0.06019625,-0.111425735,0.2478741,-0.112655126
L0RuNktDaDlJUjRZSmpoQlR3eElpUT09,0.8099373,-0.49645814,0.7046806,-1.3636847,-0.25888374,0.15596358,-0.17967214,-0.2747319,0.64555115,-0.6159321,-0.21102685,-0.99663377,1.2895262,0.14599405,-0.21772681,-0.8240468,-0.6039847,-0.32230356,-0.24857122,0.05950047,-0.21970385,-0.21833508,-0.59218866,-0.4813799,0.5577281,0.45740923,-0.4411722,0.21145147,0.24944605,0.1932577,0.7801077,-1.0494579,0.22085446,-0.41753206,0.019517481,-0.9924987,-0.7184381,-0.204017,0.783293,0.9612398,-0.42581335,-0.29203355,-0.5137682,-0.7388048,-0.2064624,0.17289959,-0.2291826,0.36184415,0.67960566,-0.337402,-0.34984088,-0.3538642,-0.90850234,0.23106647,-0.2931424,-1.0277983,0.78284764,0.021565147,0.5615804,-0.12603343,-0.52943885,0.7088716,-0.50053036,0.5589324,-0.10887981,-0.53319603,0.5515723,-0.44493636,0.9730719,0.40797004,-0.49967566,0.5393133,0.59502465,0.3196697,-1.5853281,-0.55607516,1.0687318,-0.426682,-1.3184564,0.33572045,0.19079338,-1.5796987,0.07110277,-0.6987784,-0.1392629,0.9381903,0.78263783,-1.2830708,-0.11318892,0.011815608,0.0144645795,0.8820165,0.005479742,0.36492896,-0.06300077,-0.2975856,0.52413,0.271857,0.40750322,-0.03266695
L0VEZENOb050RWI0SDZpb3dZcy9VUT09,1.2773806,-0.7720134,-0.776065,-0.19411486,0.24991985,-0.36164618,0.58886504,-0.4987375,0.95019335,-0.24306437,-0.916349,-0.8102755,0.6889319,-0.00824106,-1.0082877,0.90790755,-0.2157086,-0.41458914,-0.37810954,-0.09388766,0.31600106,0.3924333,-0.323117,-0.66835886,-0.34933513,-0.30087817,-0.32118192,-0.36316562,-1.0650178,0.28452855,-0.12116938,-0.9188943,0.15082443,-0.6495533,-0.31931093,-0.9925272,-0.9576434,-0.5054079,0.43924823,0.88518625,0.08726282,-0.5908151,-0.7082156,-0.26942873,-0.53929067,0.5059498,0.050900325,0.6400306,0.12109088,-0.86089265,-0.17187732,0.6981029,-0.06983276,-0.3429527,0.09064429,-0.9162212,0.5263112,1.08343,1.0601724,0.2776693,-0.5021668,-0.3959648,0.052662756,0.13789895,-0.83718073,-0.08437209,0.9759554,-0.41525912,0.835219,0.35241675,-0.774365,0.34454823,0.6044538,0.3513543,-1.1095725,-0.6584147,0.39752045,0.7587954,-0.8610007,0.051268153,-0.72288203,-1.2182202,-0.43795714,-0.058063757,0.4080175,0.17613786,0.75939655,-1.1138707,0.24407212,-0.7002823,0.055135403,-0.3471699,0.039019432,-0.47384462,0.27330932,-0.2493992,0.26328254,0.3674508,1.1142548,0.76953304
L0ZESG55T25ydUVnY1Z1cHJwd3dTQT09,0.65762603,-0.53907514,-0.1129593,-0.7165279,-0.10021002,-0.023114469,-0.69933915,0.00040264262,0.8589958,-0.6165842,0.11496159,-0.9583415,0.1765587,0.5657342,-0.5243418,-0.007522351,-0.6882608,-0.12447034,0.1502986,-0.097183414,0.59982026,0.5973979,-0.6127729,-0.036292657,0.17679463,0.47374386,-0.78409123,0.43983868,-0.35943553,0.012731831,0.5588139,-0.21621943,0.27359086,0.1377927,0.17861694,-0.20588133,0.03572352,0.15799122,-0.3472255,1.3009776,-0.78708595,0.1846613,0.21674542,0.0919783,-0.5576257,0.3448919,-0.041022364,0.2890276,0.03805051,-0.38090354,-0.37055635,-0.80781215,-0.83249336,-0.01833037,-0.20156617,-1.2625453,0.47244516,0.15255417,0.12819855,0.4607982,-0.596588,0.98311275,0.09748653,0.18272948,-0.57186645,-0.6762647,0.19846474,-0.32589692,0.5968581,0.40156737,0.036802616,0.9989612,0.5202362,-0.14218612,-0.30814198,-0.18713082,0.2703675,-0.15098535,-0.19833535,0.80068094,-0.2624206,-1.0362697,-0.12860048,-0.17316717,-0.4461182,0.015013918,1.0792052,-0.29011542,0.40846166,-0.57610035,-0.5350377,0.074089855,0.70257276,0.118036404,-0.27079225,-0.7565802,0.27141964,0.57461095,0.886123,-0.42228252
L1BFdTZCU1Zid2RSMFM5eG02UFRVZz09,0.5005819,-0.33485466,0.17215577,-0.22341461,0.022740796,-0.01610658,0.15353535,-0.03480807,0.38537425,-0.20689508,-0.14380452,-0.39925724,0.35018015,0.022098474,-0.15773386,-0.0489816,-0.61410654,-0.31956977,-0.17000926,-0.16795479,0.112314805,0.24365175,-0.21738257,-0.10433726,0.06389415,0.11432781,-0.15458353,0.31349766,-0.09284984,0.15934622,0.022499617,-0.3738523,0.45455098,-0.3014043,0.2620464,-0.2433201,-0.018708177,-0.321984,-0.11378777,0.503348,-0.13932532,-0.23292482,-0.26712888,-0.13150483,-0.14674473,-0.1599634,0.010335643,-0.06637227,0.07422372,-0.44890535,-0.038037363,-0.116370246,-0.067529425,-0.22496043,-0.07662096,-0.50462395,0.08265561,0.1290623,0.16574857,0.3055016,-0.115443975,0.48492706,-0.19888651,0.07633575,-0.15294617,-0.3392232,0.16746604,-0.25422764,0.35926825,0.25666684,-0.25261965,0.29449356,0.19837654,0.15466538,-0.3475535,-0.33531427,0.42201656,0.13627702,-0.21286783,0.39503402,-0.27771658,-0.4836474,-0.055120923,-0.5114619,0.00081750005,0.03593655,0.61396307,-0.4925064,-0.07811908,-0.49717614,-0.19649687,0.07859373,0.057883795,0.23654315,-0.07193276,-0.33476418,0.11843524,0.22380218,0.36719918,-0.07722586
L1BNc3FRWi9idmFoYXZ3cGU3aDVkdz09,0.7875773,-0.08348389,0.15576416,-0.10123545,-0.5295917,-0.0023952508,0.09921255,-0.14971222,0.87679875,-0.3599307,-0.43258926,-0.62804604,-0.014229439,0.33813196,-0.13739002,-0.31473893,-0.03267486,-0.42857644,-0.39499256,-0.18366715,0.23758173,0.54708445,0.10754291,-0.13010663,-0.03309013,-0.048152007,0.10657713,-0.1276612,-0.24402274,0.29130843,-0.21110755,0.22084188,0.13894778,-0.5095009,0.09818474,-0.6355873,-0.022324508,0.023076998,0.14881828,-0.059681926,0.44315106,-0.41488063,-0.634528,-0.06359788,-0.122358665,-0.29937437,-0.31076863,0.41242543,0.27319717,-0.5423792,0.10181839,0.015476426,0.35628793,-0.5270191,0.058639694,-0.5453352,-0.08742283,0.47142056,0.74442714,-0.061882567,-0.17314573,-0.3851075,0.6391305,-0.6198654,0.13308516,-0.22799525,-0.442078,-0.5878633,0.25810426,0.28121755,0.256114,0.40336642,0.1889338,0.082123406,-0.6616714,-0.19964348,0.8153396,-0.0052078557,0.06913858,-0.30758786,-0.27632937,-0.21849558,-0.23224016,-0.58217657,-0.2157569,0.0275121,0.72458065,-0.5672602,-0.13784952,0.26825798,-0.0016860592,0.50741976,0.0266096,0.0027943063,-0.24441232,-0.40164405,0.30250221,0.24283803,1.0777304,0.13134515
L1BZaDZpcS92d05yWUNxR2RERHdvUT09,0.5565947,-0.5059298,-0.13981983,-1.0638704,0.5229319,-0.0023007512,0.14431085,0.37093163,0.41767097,-0.23820993,-0.18293728,-0.763656,0.52418435,0.176914,-0.20731778,0.084632695,-0.76910067,-0.38800818,0.09567191,-0.058901202,0.73464453,0.56274796,-0.4698546,-0.3396191,0.31963238,-0.030782152,-0.3541687,0.65886974,-0.20678926,0.25760254,0.34892988,-1.0791973,0.5713196,-0.13120359,0.3247803,-0.37590128,-0.46921262,-0.17261991,0.0952021,1.153615,-0.80583954,-0.0030607344,-0.39907008,-0.4252287,-0.1751921,0.06985845,-0.24016938,-0.15752816,-0.056574382,-0.47585493,0.06824721,-0.50462407,-0.30612615,-0.37298596,-0.26085526,-0.9488157,0.48080406,-0.1533976,0.09250413,0.9648368,-0.7786385,0.6469195,-0.13977532,0.64876527,-0.26742762,-0.28910226,0.20001641,-0.78210324,1.0349404,0.60876954,-0.46233457,0.7823824,0.26736078,0.24737063,-0.40636998,-0.22646427,0.7245541,-0.114280365,-0.7784751,0.81601447,-0.4719006,-1.1672453,0.14383903,-0.49984223,-0.4866001,0.0921313,0.70107317,-0.7580449,0.11436715,-0.18090881,0.3161272,0.47554556,0.14744961,-0.008521167,0.43301114,-0.84786,-0.038989127,0.29817313,0.7351026,-0.083244815
L1FUK0x2T3lWbE1mWkd6NEpRMWVXUT09,0.022367805,-0.96640277,-0.44167978,-0.7789286,-0.054400526,0.29092893,0.74321526,0.44807464,0.09019307,0.024839342,0.4987164,-0.72493505,-0.099124715,1.0184441,-0.41889986,-0.031060338,-0.71692693,-0.030868292,0.09272589,0.34201175,0.38716412,0.47116947,-0.3712241,-0.61359304,-0.31317422,1.0977849,-0.11440605,-0.20024264,-0.62268496,-0.22825937,-0.23055452,0.4022825,0.056451082,0.5580609,0.22926596,-0.27554503,-0.4290937,-0.6745994,-0.5644022,-0.35759687,-1.1402562,-0.35620427,-0.28621954,-0.21138352,-1.2808385,0.055035964,0.3257986,0.67559826,0.12169073,-1.2915106,-0.42891222,-0.4790809,-0.1544469,-0.08647317,0.21687503,-1.1214292,0.81733084,1.3331814,0.39434826,0.23402007,-0.9368516,0.730299,-0.7467723,0.15485477,0.19320112,0.11047684,0.3011142,-0.113844305,0.8995873,0.105650686,0.061622016,1.0558494,0.5962347,-0.1049536,-0.9025123,-0.7906142,0.06474805,0.6210339,-0.9980389,0.092903525,-1.0367452,-0.88465345,-0.28978205,-0.6737581,-0.8532131,0.32406765,1.3788741,-1.258365,0.26430508,0.25483835,-0.045088425,-0.12329584,-0.1735445,-0.46322343,0.03548254,-0.8471713,0.67704046,0.20779659,1.2146235,0.049676392
L1FZNVp4cWNNKzRpK09Mc3VkMGRXUT09,0.31814238,-0.29398546,-0.18833464,-0.22392903,0.024909046,-0.11390793,0.05448342,0.113800585,0.39019144,-0.08508627,0.07995342,-0.21317594,0.16606116,0.18978256,-0.11943954,0.14492935,-0.2011314,-0.12177258,0.15573642,-0.030853625,0.25649786,0.15750366,-0.16052465,-0.11324685,0.21359634,-0.12711431,-0.12176904,0.072147265,-0.20288646,0.15462661,0.10537608,-0.39044282,0.3352457,0.075043894,0.12332484,-0.21349907,-0.26349124,-0.27878517,0.055788305,0.39006698,-0.3466551,-0.20905341,-0.23424661,-0.19035,-0.112808496,0.0145152975,-0.03176753,0.05769259,-0.035799254,-0.37018606,-0.084652215,-0.47422165,-0.0684016,-0.15188815,0.05007188,-0.34292215,0.11141358,0.053919323,0.17138721,0.53402007,-0.24712491,0.20827189,-0.123722926,0.21892938,-0.065753,-0.21742406,0.055178683,-0.34255484,0.24256703,0.36796856,-0.06130071,0.24015595,0.103445314,0.2268416,-0.21525818,-0.31527457,0.37076187,0.05966831,-0.38160688,0.20098011,-0.17439955,-0.37518597,0.083429046,-0.39166194,-0.29309106,-0.013078706,0.38362452,-0.21118963,0.25967318,-0.037637588,0.02043943,0.1065874,0.08217139,-0.0937301,0.19298047,-0.28871763,0.018702019,0.08650607,0.39413494,0.0038789124
L1JkL0M2M3pNM3Fra1d4bDFKM3NVdz09,0.84443414,-0.0228347,0.093721285,0.32136506,-0.42543185,0.22272353,-0.111398876,-0.36510217,1.0554475,0.053649023,-0.2652533,-0.28987324,0.28482333,0.47455153,-0.4084383,-0.32217816,0.3200025,-0.18813306,-0.16834623,0.4388949,0.113950446,0.21893385,-0.587815,0.050638705,0.5561424,-0.2690899,0.08082743,0.38908085,-0.29959637,0.20229807,0.2729171,0.43536818,-0.010961875,-0.38280958,-0.24179104,-0.25008565,-0.48592192,0.39008975,-0.74025303,0.30752286,-0.21470268,-0.6457915,-0.3542097,0.17645624,-0.26070812,-0.5334125,-0.086877465,0.32722977,-0.5630255,0.0075711943,0.028562842,-0.20360567,-0.19583477,-0.6027529,0.3779153,-0.46288183,-0.32964578,0.08373902,0.5848531,-0.015703134,-0.47293574,-0.34276387,0.531427,0.24021076,0.070882745,-0.03249208,0.089618355,-0.5198618,0.09012318,0.07655238,-0.041791454,1.0648553,0.22547927,-0.38577744,-0.5127572,-0.46397442,0.7853116,0.31727082,-0.28651237,0.41307572,-0.92404175,0.16731273,0.21311678,-0.85676867,-0.22391419,0.16462019,0.2644201,-0.3518782,-0.002172526,-0.04600364,-0.004542932,0.31675535,0.03509237,0.121004544,-0.3929361,-0.39369458,0.14638259,0.29324508,0.5876936,-0.6727892
L1U3Z0w4WTRZRXpRc3B6dEVYeC96Zz09,0.1746222,-0.3478088,-0.115623295,-0.2795519,-0.04109652,-0.04025503,0.08936737,-0.09961465,0.21084705,-0.13642912,0.07849866,-0.3324725,0.053564798,0.37425575,-0.07728253,-0.08095441,-0.35807645,-0.106229246,0.02037394,0.002622494,0.18330023,0.3933748,-0.10252255,0.005359349,0.12563157,0.06814109,-0.18224552,0.1431479,0.006471957,0.02212312,0.0865101,-0.2659062,-0.049707934,-0.034522794,0.24012212,-0.031044733,0.0023927023,-0.15736891,0.04163112,0.31693247,-0.3326365,-0.27924103,-0.19473842,-0.13615122,-0.0567828,0.026165491,-0.09672483,-0.0074097244,0.036128394,-0.53044873,-0.079541974,-0.60950834,-0.025591621,-0.23489471,0.15763052,-0.5360882,0.00071199314,0.21738963,0.3185976,0.4186972,-0.13548224,0.35219908,-0.030762564,0.08052044,0.010931322,-0.2564066,-0.11779052,-0.3565875,0.09844681,0.032803383,-0.121387616,0.28670043,0.11539811,0.06783186,-0.39197892,-0.2623772,0.5444652,0.15564111,-0.23937349,0.09458572,-0.19622946,-0.34771425,-0.086626954,-0.5070562,-0.2248359,-0.013813293,0.4976055,-0.3777403,0.01480494,-0.1893642,-0.096957944,0.072784476,0.15813252,-0.035197474,-0.023530906,-0.13662647,0.17402473,0.17296165,0.5036768,-0.039314393
L1VJc0JDdFJwZVQ5STlsVlVLZzB5QT09,0.33750454,-0.2791565,-0.11373527,-0.3149606,-0.07818099,-0.055948906,-0.030113343,-0.004045617,0.33876252,-0.15909103,-0.10920318,-0.42135772,0.11324197,0.15971103,-0.17355186,0.121354595,-0.2316854,0.01939465,0.060858555,0.038749028,0.19728558,0.366604,-0.06391789,-0.08740688,0.12522608,0.102463566,-0.23216982,0.118128285,-0.1739904,0.1706393,0.15881465,-0.038599305,0.31623325,0.0009530764,0.02999727,-0.119947195,0.005931782,-0.011096837,-0.06716161,0.4366459,-0.19147694,-0.089124545,-0.0837821,-0.03993596,-0.13565496,-0.006238858,0.09684336,0.047764156,-0.04629593,-0.38033086,0.023104407,-0.27368012,-0.21679418,-0.08155506,-0.095366165,-0.45606285,0.113450445,0.10527183,0.09399987,0.24228768,-0.36193404,0.20686284,0.1599046,0.17475662,-0.22249608,-0.25279838,0.03302404,-0.2529405,0.2222394,0.15958266,-0.11077054,0.3999825,0.08705294,0.14209288,-0.17034718,-0.08140384,0.2575894,0.04961941,-0.17041697,0.28388318,-0.35014898,-0.298779,-0.03726147,-0.38803622,-0.12391589,-0.17245986,0.40077376,-0.17220752,0.07200839,-0.32169557,-0.3288502,0.031912267,0.09859298,0.03604418,-0.05694448,-0.26656908,0.2592979,0.14800128,0.37846214,0.019534037
L1k0c3J6Z2xQa3JZOENVUjJKREN0UT09,0.8129269,-0.80357707,-0.6246184,-1.5750443,-0.4407175,-0.37377408,0.3291702,-0.8592533,-0.1154892,1.0903122,-0.038048144,-1.3103349,0.93948025,-0.3746693,-0.35068744,0.18822174,-0.8172688,-0.7906335,0.12824036,-0.69441324,0.1636726,0.49022993,-0.497554,-0.6917795,1.0776643,0.353417,-1.6214495,0.39470813,0.30874848,0.44521096,0.55644333,0.28123313,-0.03460066,0.33312255,-0.06634595,-0.82305765,0.096582964,-0.2945487,-0.81584615,1.827479,-0.7017568,-0.3888398,-0.37706992,-0.28431556,0.16744146,-0.08967574,-1.0023042,0.44917232,-0.4668064,0.022640115,-0.24759802,-0.9078433,0.38863224,0.4986841,-0.80911523,-0.92028123,0.6282468,-0.1628198,-0.61255723,-0.28973487,-0.44471857,-0.2670164,0.45656034,1.4695082,-0.54800093,-0.30666572,0.3492692,-0.74699014,0.3835431,0.35510507,-1.053608,-0.3618927,0.4804006,0.78193796,-0.7411708,-0.92682374,0.09670955,1.0841402,-0.17817234,0.65523875,-0.3769939,-1.1142838,0.6054698,-1.0989581,-0.52765185,0.14190075,0.53157306,-0.8997989,0.3017187,-1.1185982,-0.031136664,0.2764961,-0.47683144,-0.15625376,-0.0793141,-0.83227617,-0.34622115,-0.28878686,0.3727929,0.6409743
L1lETFl4cXFFWmVINndFaHgyQ0w4QT09,0.5988703,-0.37917006,0.084209144,-0.7321176,0.051645234,-0.15699437,-0.06991639,-0.07632993,0.79065883,-0.13322392,-0.08978178,-0.8769359,0.20153514,0.40212178,-0.2597812,0.00840069,-0.5483511,-0.031223476,0.05959774,-0.059164785,0.30337134,0.57814896,-0.26832157,-0.26414678,0.0908092,-0.024573032,-0.42600715,0.29060382,-0.111474104,0.23280446,0.20871365,-0.50811887,0.3464965,-0.096154116,0.26815197,0.015890665,-0.019855645,-0.2324925,0.09429011,0.89878184,-0.6819852,0.22388059,-0.031758297,-0.106266335,-0.50948584,0.09235444,0.12221428,0.13916413,0.24497555,-0.3807709,-0.48892754,-0.15470552,-0.51871604,0.07923193,0.100407235,-0.93829894,0.49638137,0.17915936,0.2229554,0.15207455,-0.45516443,0.6606649,-0.26027253,0.23040435,-0.16693076,-0.31577095,0.25105324,-0.16020872,0.70622385,0.23050609,-0.23880337,0.6960728,0.19232848,-0.08236297,-0.62081516,-0.129507,0.46376875,0.06808773,-0.6759068,0.6141868,-0.33761925,-0.90085495,-0.080489695,-0.15157323,-0.3282337,0.07134024,0.6233596,-0.5054908,0.07140802,-0.6511548,0.013495195,-0.04479949,0.20583676,0.2086569,-0.3054901,-0.34079438,0.46615857,0.16238315,0.52112067,-0.2848065
L1pSTWlFU1ZzVEpZckJMeTl6MURrUT09,0.9454481,-0.44457585,-0.18804212,-0.088777736,-0.09951122,0.36501846,-0.38390183,0.0042279535,0.6528361,-0.3736623,-0.36244527,-0.53142774,0.07187021,0.4309014,-0.8330652,0.19431666,-0.46001074,0.11316953,0.55944115,0.29119113,0.5784346,0.48987943,-0.39841056,0.46594644,0.1980506,0.36720625,-0.39771995,0.8266473,-0.8940039,-0.27559954,0.6684161,-0.23419768,0.89091486,0.00620091,-0.08662014,-0.5873137,-0.15244825,0.4931465,-0.5116334,1.0159475,-1.2370524,0.691239,0.6478357,-0.30459967,-0.8691498,0.30573815,-0.040679187,0.5725166,-0.34893876,-0.30235055,-0.107110456,-0.5583631,-0.73104537,0.18524912,-0.005220993,-1.0318458,0.13996238,-0.1390853,0.11040525,0.16344257,-0.6269453,1.2644536,-0.070200466,0.5284273,-0.71741,-0.81105804,0.26039258,-0.7311345,0.642365,0.1334101,0.36991107,1.1178242,0.40228164,-0.25466648,-0.070420146,-0.517977,0.44239464,-0.062558696,-0.9394029,0.69539434,-0.5769641,-0.47231144,0.034083575,-0.14481246,-0.2563488,0.2581041,0.8974584,-0.26628315,0.08084012,0.15717182,-0.8270691,0.543015,0.42286488,0.025517516,0.19705498,-0.60760397,-0.033072013,0.5091946,0.8705567,-0.944199
L29Qb1V6U2hrenptVkFGRHlERmE4QT09,0.68082535,-0.9298734,0.16645215,-0.2063896,0.27052316,0.14501575,-0.11061988,0.44438317,0.59248805,-0.09791691,0.28286088,-0.58044624,0.16780625,0.8381231,-0.36749154,-0.10584854,-1.1200908,-0.35428798,0.38735798,0.29131424,0.37458298,0.49901783,-0.65795267,-0.29141948,0.22162582,-0.31920603,-0.07018742,-0.14338957,-0.541714,-0.34148586,0.13787505,-0.652264,-0.134494,-0.06008953,0.5193482,0.2775996,-0.07955796,-0.7133102,-0.67439574,0.91919553,-0.4041805,-0.22447582,0.107480936,0.09462491,-0.40586445,0.06585726,0.23380542,-0.42385066,-0.15731455,-0.8954219,-0.42811775,0.0622517,0.3915512,-0.73874974,0.19952393,-1.5780659,-0.24167185,-0.25926143,-0.030075355,0.8212631,0.2994968,0.8147791,-0.79787594,-0.31648013,-0.60382354,0.2461567,-0.3617324,-0.70376366,-0.02678861,0.05301809,-0.17508799,0.3989159,0.46277913,-0.47469375,-0.40248173,-0.21555664,-0.015370396,0.35537302,-0.11226187,0.684337,-0.27557042,-1.2953999,0.017430894,0.040727973,-0.6757429,-0.36030492,0.8709078,0.3718875,0.7489839,-0.7249777,0.28306866,0.18611962,-0.2453951,0.2837827,0.11591315,-0.8289953,0.69019485,-0.032479092,0.6475509,-0.44370118
